{"learner":{"attributes":{"best_iteration":"2","best_score":"0.21067694280970753"},"feature_names":["amt_log","category_te","hour_sin","hour_cos","is_night","city_pop_log","pop_size_code","amt_x_catTE","amt_x_hour_sin"],"feature_types":["float","float","float","float","int","float","int","float","float"],"gradient_booster":{"model":{"gbtree_model_param":{"num_parallel_tree":"1","num_trees":"13"},"iteration_indptr":[0,1,2,3,4,5,6,7,8,9,10,11,12,13],"tree_info":[0,0,0,0,0,0,0,0,0,0,0,0,0],"trees":[{"base_weights":[8.586721E1,3.432277E1,1.6668202E2,7.2778645E0,7.290585E1,1.4517355E2,2.5606062E1,1.5501667E1,1.5614696E0,1.1413012E2,2.5022522E1,1.1448831E2,2.4622406E1,8.74624E0,5.0386883E1,1.2523205E0,3.743767E1,2.0468384E1,1.3564406E2,1.0886378E1,5.688477E1,1.2588586E2,1.0381336E1,2.1071085E-1,1.8743069E1,5.6086384E1,1.5718546E1,2.3320034E-1,5.3273025E0,4.986928E0,9.338282E0,1.4213043E1,6.1329914E1,1.1707338E2,1.4432784E2,2.6101446E1,8.9189476E-1,4.8239784E1,1.1843991E2,1.0474407E1,1.3366006E2,-4.0358594E-1,4.17281E0,2.2034498E1,5.1989903E0,6.3214027E1,3.7155632E1,2.7626624E0,9.164552E0,1.5793856E0,-7.655081E-1,1.0814706E1,1.7243927E0,1.9892164E1,-1.491962E-1,1.0189802E1,3.802978E1,1.05576E2,1.8930176E1,1.461612E2,1.0442201E2,4.936924E0,6.850211E1,-7.4188304E-1,1.5934441E1,6.1442905E1,2.1188263E1,1.4277856E1,1.2981636E2,1.4066602E2,1.0391615E2,8.5010314E-1,-1.5061326E-1,5.12395E0,-1.438933E-1,1.6252739E1,3.5622753E1,2.6644154E0,1.8414848E1,3.8741333E0,6.647683E1,8.115816E0,1.9039848E1,-1.3459817E-1,1.8814428E1,-7.834614E-1,7.960306E0,-1.5075213E-1,8.079724E-1,7.547829E0,1.4992153E1,6.082902E-1,7.7483706E0,1.4685695E1,2.8932774E1,1.8168737E1,9.757055E0,9.129326E1,1.6576706E1,1.395654E2,2.2962896E1,1.621509E1,5.732352E1,4.17932E1,2.44415E0,8.21671E1,-1.4528224E-1,-1.5062672E-1,2.9369001E0,1.3938718E1,8.466567E0,5.4339176E1,8.43229E1,1.547668E1,4.3762863E1,2.0119656E1,1.0522591E1,2.1203857E1,8.043151E0,1.648261E1,3.1710958E1,-1.9798706E-1,4.2686305E0,2.9053257E0,1.2688427E1,1.8165775E1,4.167885E0,5.017668E1,2.1834229E1,-1.4762355E-1,4.4150295E0,1.4577898E1,4.5812855E0,7.0732765E1,7.4551353E0,1.2946974E1,2.588386E1,-1.1686086E-1,4.756644E0,2.688009E0,-1.5066701E-1,1.4990987E1,2.2300296E0,1.4867154E1,-1.4998186E-1,8.916201E0,-1.4347783E-1,1.3755298E1,6.979176E0,5.311378E0,-1.502424E-1,9.826301E0,5.127163E0,1.7296679E1,-1.4427623E-1,3.1036354E1,-1.2819093E-1,-1.3030836E-1,9.542565E0,1.2108991E1,1.5733245E1,2.2052948E1,1.2815846E2,-7.676783E-2,1.0459528E1,-1.323303E-1,9.806221E0,2.4390759E-1,2.7277634E1,1.3973961E1,3.66779E1,1.3401579E1,-1.462772E-1,1.6546736E1,-1.3746914E-1,2.6340693E1,6.135944E1,8.895211E1,5.4629635E1,3.249464E1,8.527411E0,5.303281E1,3.1661295E1,-1.093116E-1,9.626762E0,2.8682072E0,-1.4998722E-1,6.608877E0,-1.4371413E-1,4.6557364E0,-1.4552955E-1,1.4994434E1,-1.18257314E-1,1.6438993E1,4.031359E1,-1.4409542E-1,6.594375E0,5.1170063E1,-9.79939E-2,2.4777136E1,1.4635698E1,1.2376168E1,1.4449211E0,2.7066777E0,-1.2083592E-1,8.274129E0,1.0956061E1,2.198002E1,-1.3677722E-1,-1.3490547E-1,7.0523148E0,-1.4430763E-1,5.9629273E0,2.04145E1,-1.4638808E-1,3.4205208E0,-1.4743742E-1,3.002744E0,-1.269925E-1,1.4871365E1,7.542749E0,1.7532753E1,-1.4412335E-1,-1.4344007E-1,7.2641344E0,2.2081795E0,-1.370303E-1,-1.426881E-1,1.5085201E1,9.296654E0,2.5171036E1,2.7607212E1,6.5633564E0,1.936387E1,-9.3352884E-2,-1.501283E-1,3.639163E0,5.194398E0,-1.2580504E-1,6.4955735E0,2.738229E0,2.5954928E0,-1.0843699E-1,1.0363528E1,3.4947628E1,6.1544538E0,2.103953E1,9.821254E0,5.9870677E0,6.2952724E0,1.3600852E1,-1.1995014E-1,1.2008441E1,5.184522E0,-1.0203308E-1,-1.4747131E-1,1.735019E1,1.03926935E1,3.4876392E0,1.914709E1,4.084747E1,-1.4363904E-1,5.977518E0,4.696125E0,1.4743488E0,6.3515053E0,-1.4083207E-1,1.3783096E0,4.488642E0,1.4594203E1,2.3641418E1,4.013656E0,8.802813E0,1.4831111E0,-1.4061196E-1,6.932269E0,5.8543148E1,4.494582E0,2.7593527E0,8.915798E0,1.9755787E1,7.027867E0,4.794373E0,-1.4459386E-1,2.6338165E0,4.472177E0,-1.1950614E-1,1.3432959E0,-1.3301252E-1,1.6522184E1,5.333352E0,2.3810883E0,1.4772873E0,2.9504604E0,-1.2587674E-1,3.3753955E0,1.0065683E1,2.3362549E1,1.2991462E1,1.4507965E0,-1.4086656E-1,-1.252162E-1,4.2743373E0,3.5077312E0,5.4148E0,4.9435806E0,1.5529498E1,3.2031757E1,1.9284624E1,1.5137121E1,1.6739911E0,2.4804613E1,4.2196813E0,2.6589352E1,8.863358E0,2.5165284E0,2.4023195E1,8.891426E0,3.8616E1,4.719486E0,-1.15387574E-1,-1.0950834E-1,9.103512E0,1.3507705E0,-1.3308522E-1,1.4398981E0,-1.4082052E-1,4.4693995E0,1.4415858E0,2.4835207E1,1.2409629E1,3.5019146E1,1.6519007E1,9.507004E0,-1.0897951E-1,4.3226995E0,-1.3891791E-1,-1.3185959E-1,3.4662727E1,1.30985E0,-1.1920298E-1,5.975894E0,-1.4451312E-1,1.8082708E1,1.4281828E0,1.4287367E0,9.95707E-1,7.3708696E0,-1.432565E-1,8.486686E0,1.872324E1,2.7851648E0,3.994412E0,1.451045E0,2.737006E0,-1.3879117E-1,7.163825E0,-1.2752424E-1,1.9035301E1,6.207137E0,2.8900043E1,-1.2766892E-1,3.7324164E0,2.9857786E0,-1.0701713E-1,3.5234742E0,-1.4535172E-1,4.4579396E0,-1.02750316E-1,-1.4498326E-1,1.9449211E1,4.4650474E0,-8.496539E-2,4.418072E0,2.3610764E0,1.3924893E1,-1.3902597E-1,1.0372482E1,1.7938814E1,1.345282E0,-1.4096864E-1,2.1212678E0,6.2561316E0,2.166975E0,9.8615843E-1,5.9368644E0,-1.1509701E-1,2.5435967E0,-8.220309E-2,5.9521704E0,-8.202274E-2,1.3358955E0,-1.3272817E-1,2.2209969E0,3.1371539E0,4.3614027E-1,-1.4737833E-1,1.4903433E0,-1.2501374E-1,2.4343543E0,5.8121127E-1,-1.0502282E-1,3.856831E0,3.240962E0,5.784838E-1,3.4752269E0,1.9207503E0,3.6809704E0,5.8865137E0,-1.452703E-1,1.9705276E0,4.197415E0,-1.07596315E-1,2.6958065E0,-1.2539078E-1,-1.2350172E-1,5.473912E0],"categories":[],"categories_nodes":[],"categories_segments":[],"categories_sizes":[],"default_left":[0,0,0,0,0,0,0,0,0,0,0,0,0,0,0,0,0,0,0,0,0,0,0,0,0,0,0,0,0,0,0,0,0,0,0,0,0,0,0,0,0,0,0,0,0,0,0,0,0,0,0,0,0,0,0,0,0,0,0,0,0,0,0,0,0,0,0,0,0,0,0,0,0,0,0,0,0,0,0,0,0,0,0,0,0,0,0,0,0,0,0,0,0,0,0,0,0,0,0,0,0,0,0,0,0,0,0,0,0,0,0,0,0,0,0,0,0,0,0,0,0,0,0,0,0,0,0,0,0,0,0,0,0,0,0,0,0,0,0,0,0,0,0,0,0,0,0,0,0,0,0,0,0,0,0,0,0,0,0,0,0,0,0,0,0,0,0,0,0,0,0,0,0,0,0,0,0,0,0,0,0,0,0,0,0,0,0,0,0,0,0,0,0,0,0,0,0,0,0,0,0,0,0,0,0,0,0,0,0,0,0,0,0,0,0,0,0,0,0,0,0,0,0,0,0,0,0,0,0,0,0,0,0,0,0,0,0,0,0,0,0,0,0,0,0,0,0,0,0,0,0,0,0,0,0,0,0,0,0,0,0,0,0,0,0,0,0,0,0,0,0,0,0,0,0,0,0,0,0,0,0,0,0,0,0,0,0,0,0,0,0,0,0,0,0,0,0,0,0,0,0,0,0,0,0,0,0,0,0,0,0,0,0,0,0,0,0,0,0,0,0,0,0,0,0,0,0,0,0,0,0,0,0,0,0,0,0,0,0,0,0,0,0,0,0,0,0,0,0,0,0,0,0,0,0,0,0,0,0,0,0,0,0,0,0,0,0,0,0,0,0,0,0,0,0,0,0,0,0,0,0,0,0,0,0,0,0,0,0,0,0,0,0,0,0,0,0,0,0,0,0,0,0,0,0,0,0,0,0,0,0,0,0,0,0,0,0],"id":0,"left_children":[1,3,5,7,9,11,-1,13,15,17,19,21,-1,23,25,27,29,31,33,35,37,39,-1,41,43,45,47,49,51,-1,-1,53,55,57,59,61,63,65,67,-1,69,71,73,75,77,79,81,-1,83,85,87,89,91,93,-1,-1,95,97,-1,99,101,103,105,107,109,111,113,-1,115,117,119,121,-1,123,-1,125,127,129,131,-1,133,-1,135,-1,137,139,141,-1,143,145,147,149,151,153,155,157,-1,159,-1,161,-1,-1,163,165,167,169,-1,-1,171,173,-1,175,177,179,181,-1,-1,-1,-1,-1,183,185,187,189,191,193,195,197,199,-1,201,203,-1,205,-1,207,209,-1,-1,211,-1,213,215,217,-1,219,-1,221,-1,223,-1,225,227,229,-1,231,-1,-1,-1,-1,-1,-1,233,-1,-1,-1,-1,235,237,-1,239,241,-1,243,-1,245,247,249,251,253,255,257,259,-1,-1,261,-1,263,-1,265,-1,267,-1,269,271,-1,273,275,-1,277,279,281,283,-1,-1,-1,-1,285,-1,-1,-1,-1,287,289,-1,291,-1,-1,-1,293,295,297,-1,-1,299,-1,-1,-1,301,303,305,307,-1,-1,-1,-1,309,-1,-1,-1,-1,-1,-1,311,313,-1,315,-1,-1,-1,-1,-1,-1,-1,-1,-1,317,-1,-1,319,321,-1,323,325,-1,327,-1,-1,-1,329,331,-1,-1,-1,-1,-1,333,-1,-1,335,337,339,-1,-1,341,-1,-1,-1,-1,343,-1,345,-1,-1,-1,347,349,351,353,-1,-1,-1,-1,-1,355,-1,357,359,361,363,365,367,369,371,-1,-1,373,375,377,-1,-1,-1,-1,-1,-1,-1,-1,379,-1,381,383,385,387,-1,-1,-1,-1,-1,389,-1,-1,391,-1,393,-1,-1,395,397,-1,399,401,-1,-1,-1,-1,-1,403,-1,405,-1,407,-1,-1,-1,-1,409,-1,-1,-1,-1,411,-1,-1,-1,-1,413,-1,-1,415,-1,-1,-1,-1,-1,-1,-1,-1,-1,-1,-1,-1,-1,-1,-1,-1,-1,-1,-1,-1,-1,-1,-1,-1,-1,-1,-1,-1,-1,-1,-1,-1,-1,-1,-1,-1,-1,-1],"loss_changes":[6.180987E7,9.455409E6,4.75504E5,2.5048038E5,7.368426E6,5.15524E5,0E0,5.144867E5,3.4831188E4,4.040156E6,7.78086E5,1.739465E5,0E0,1.5629473E5,6.9118625E4,1.2951059E4,7.213789E2,9.5223516E4,2.46196E5,1.8227478E5,2.7689762E5,1.13361E5,0E0,2.4090503E3,3.7494344E4,3.865125E4,7.4064355E2,3.3568801E3,1.2316432E4,0E0,0E0,2.829129E4,5.0482344E3,4.1783E4,6.575E4,4.261352E5,1.7818873E4,1.65625E5,4.7635E3,0E0,3.6678E4,6.462212E2,6.534321E2,5.2718406E4,5.5195615E3,2.503675E4,2.5235328E4,0E0,1.6661869E3,1.6038826E4,5.4106793E2,3.2589902E3,2.5354802E3,1.0795883E4,0E0,0E0,5.9148027E3,6.72325E3,0E0,2.6876E4,2.8369375E3,2.9121361E4,1.5021981E5,6.3452795E2,4.955699E3,4.638E4,1.9284406E4,0E0,1.0700625E3,4.268E3,1.83865E4,9.975043E2,0E0,1.8468501E3,0E0,1.0969039E4,3.937197E4,9.0278436E2,7.9169824E2,0E0,1.08410625E4,0E0,1.4533955E3,0E0,2.2271907E3,5.9871265E2,1.1547145E4,0E0,4.842515E3,1.6455571E3,3.5499746E3,2.4270146E3,2.7082642E2,6.279832E3,5.420664E3,7.8506777E3,0E0,1.157625E3,0E0,2.8118E4,0E0,0E0,4.273699E3,2.0273746E4,1.6330216E4,6.2675188E4,0E0,0E0,1.8068721E3,2.689293E3,0E0,4.5965312E4,5.1025E3,1.4518006E4,1.7664258E3,0E0,0E0,0E0,0E0,0E0,5.6082676E3,5.287028E2,8.052737E2,6.020573E2,7.936482E2,1.5099766E4,8.3498254E2,4.9481875E3,1.8685469E3,0E0,2.2340195E3,1.1934722E3,0E0,1.6495625E3,0E0,3.1110532E3,1.0908506E4,0E0,0E0,5.647995E2,0E0,1.1182449E4,6.1361597E2,1.7737637E3,0E0,8.797324E2,0E0,5.8418965E3,0E0,1.0071709E3,0E0,1.6854192E3,1.7193701E3,8.045551E3,0E0,2.3002812E3,0E0,0E0,0E0,0E0,0E0,0E0,2.72715E4,0E0,0E0,0E0,0E0,1.1686909E3,5.057211E3,0E0,2.5509102E3,6.733225E2,0E0,6.324159E3,0E0,3.0521016E3,1.44028125E4,1.1334688E3,1.7493047E4,2.4886836E3,7.584525E3,6.08975E3,1.0346455E3,0E0,0E0,5.361941E2,0E0,2.3250415E2,0E0,5.8326416E2,0E0,1.5913467E3,0E0,4.7575625E3,5.6822266E3,0E0,1.1335377E3,7.826406E2,0E0,1.8754453E3,7.904824E2,2.4721736E3,2.0442116E2,0E0,0E0,0E0,0E0,2.698255E3,0E0,0E0,0E0,0E0,5.160644E2,5.0858516E3,0E0,7.558424E2,0E0,0E0,0E0,1.6522402E3,1.02345654E3,1.9054199E3,0E0,0E0,1.2421306E3,0E0,0E0,0E0,2.3159062E3,3.525541E3,4.416617E3,1.8149805E3,0E0,0E0,0E0,0E0,1.650522E3,0E0,0E0,0E0,0E0,0E0,0E0,3.9241177E3,1.3262617E3,0E0,9.298242E1,0E0,0E0,0E0,0E0,0E0,0E0,0E0,0E0,0E0,8.082043E3,0E0,0E0,2.126935E3,6.8352324E3,0E0,5.2215173E2,8.4612E2,0E0,2.4426868E2,0E0,0E0,0E0,6.5899766E3,5.636492E3,0E0,0E0,0E0,0E0,0E0,9.973039E3,0E0,0E0,3.4373252E3,5.1346987E3,2.9366016E2,0E0,0E0,5.764004E2,0E0,0E0,0E0,0E0,6.848789E2,0E0,9.972097E2,0E0,0E0,0E0,6.892882E2,6.906084E2,5.820508E1,6.805254E2,0E0,0E0,0E0,0E0,0E0,6.01625E2,0E0,1.8090542E3,2.2671875E1,2.889252E3,8.230027E2,3.1853772E2,1.6925674E3,2.630045E3,1.0941533E3,0E0,0E0,4.6416504E2,1.7331448E3,6.98591E3,0E0,0E0,0E0,0E0,0E0,0E0,0E0,0E0,7.763165E2,0E0,9.010625E3,2.9492344E3,4.7028906E3,3.762881E2,0E0,0E0,0E0,0E0,0E0,1.7283379E3,0E0,0E0,5.0530292E2,0E0,2.750957E2,0E0,0E0,3.293061E2,4.422422E2,0E0,1.8790979E3,1.2066931E3,0E0,0E0,0E0,0E0,0E0,1.9309172E3,0E0,3.6662988E2,0E0,5.925547E2,0E0,0E0,0E0,0E0,1.65981E3,0E0,0E0,0E0,0E0,1.4735156E3,0E0,0E0,0E0,0E0,1.39344E3,0E0,0E0,3.2045054E3,0E0,0E0,0E0,0E0,0E0,0E0,0E0,0E0,0E0,0E0,0E0,0E0,0E0,0E0,0E0,0E0,0E0,0E0,0E0,0E0,0E0,0E0,0E0,0E0,0E0,0E0,0E0,0E0,0E0,0E0,0E0,0E0,0E0,0E0,0E0,0E0,0E0,0E0],"parents":[2147483647,0,0,1,1,2,2,3,3,4,4,5,5,7,7,8,8,9,9,10,10,11,11,13,13,14,14,15,15,16,16,17,17,18,18,19,19,20,20,21,21,23,23,24,24,25,25,26,26,27,27,28,28,31,31,32,32,33,33,34,34,35,35,36,36,37,37,38,38,40,40,41,41,42,42,43,43,44,44,45,45,46,46,48,48,49,49,50,50,51,51,52,52,53,53,56,56,57,57,59,59,60,60,61,61,62,62,63,63,64,64,65,65,66,66,68,68,69,69,70,70,71,71,73,73,75,75,76,76,77,77,78,78,80,80,82,82,84,84,85,85,86,86,88,88,89,89,90,90,91,91,92,92,93,93,94,94,95,95,97,97,99,99,102,102,103,103,104,104,105,105,108,108,109,109,111,111,112,112,113,113,114,114,120,120,121,121,122,122,123,123,124,124,125,125,126,126,127,127,128,128,130,130,131,131,133,133,135,135,136,136,139,139,141,141,142,142,143,143,145,145,147,147,149,149,151,151,152,152,153,153,155,155,162,162,167,167,168,168,170,170,171,171,173,173,175,175,176,176,177,177,178,178,179,179,180,180,181,181,182,182,185,185,187,187,189,189,191,191,193,193,194,194,196,196,197,197,199,199,200,200,201,201,202,202,207,207,212,212,213,213,215,215,219,219,220,220,221,221,224,224,228,228,229,229,230,230,231,231,236,236,243,243,244,244,246,246,256,256,259,259,260,260,262,262,263,263,265,265,269,269,270,270,276,276,279,279,280,280,281,281,284,284,289,289,291,291,295,295,296,296,297,297,298,298,304,304,306,306,307,307,308,308,309,309,310,310,311,311,312,312,313,313,316,316,317,317,318,318,327,327,329,329,330,330,331,331,332,332,338,338,341,341,343,343,346,346,347,347,349,349,350,350,356,356,358,358,360,360,365,365,370,370,375,375,378,378],"right_children":[2,4,6,8,10,12,-1,14,16,18,20,22,-1,24,26,28,30,32,34,36,38,40,-1,42,44,46,48,50,52,-1,-1,54,56,58,60,62,64,66,68,-1,70,72,74,76,78,80,82,-1,84,86,88,90,92,94,-1,-1,96,98,-1,100,102,104,106,108,110,112,114,-1,116,118,120,122,-1,124,-1,126,128,130,132,-1,134,-1,136,-1,138,140,142,-1,144,146,148,150,152,154,156,158,-1,160,-1,162,-1,-1,164,166,168,170,-1,-1,172,174,-1,176,178,180,182,-1,-1,-1,-1,-1,184,186,188,190,192,194,196,198,200,-1,202,204,-1,206,-1,208,210,-1,-1,212,-1,214,216,218,-1,220,-1,222,-1,224,-1,226,228,230,-1,232,-1,-1,-1,-1,-1,-1,234,-1,-1,-1,-1,236,238,-1,240,242,-1,244,-1,246,248,250,252,254,256,258,260,-1,-1,262,-1,264,-1,266,-1,268,-1,270,272,-1,274,276,-1,278,280,282,284,-1,-1,-1,-1,286,-1,-1,-1,-1,288,290,-1,292,-1,-1,-1,294,296,298,-1,-1,300,-1,-1,-1,302,304,306,308,-1,-1,-1,-1,310,-1,-1,-1,-1,-1,-1,312,314,-1,316,-1,-1,-1,-1,-1,-1,-1,-1,-1,318,-1,-1,320,322,-1,324,326,-1,328,-1,-1,-1,330,332,-1,-1,-1,-1,-1,334,-1,-1,336,338,340,-1,-1,342,-1,-1,-1,-1,344,-1,346,-1,-1,-1,348,350,352,354,-1,-1,-1,-1,-1,356,-1,358,360,362,364,366,368,370,372,-1,-1,374,376,378,-1,-1,-1,-1,-1,-1,-1,-1,380,-1,382,384,386,388,-1,-1,-1,-1,-1,390,-1,-1,392,-1,394,-1,-1,396,398,-1,400,402,-1,-1,-1,-1,-1,404,-1,406,-1,408,-1,-1,-1,-1,410,-1,-1,-1,-1,412,-1,-1,-1,-1,414,-1,-1,416,-1,-1,-1,-1,-1,-1,-1,-1,-1,-1,-1,-1,-1,-1,-1,-1,-1,-1,-1,-1,-1,-1,-1,-1,-1,-1,-1,-1,-1,-1,-1,-1,-1,-1,-1,-1,-1,-1],"split_conditions":[5.489846E0,1E0,1E0,3.24688E0,3.272227E0,6.47131E0,2.5606062E1,2.9279885E0,5.4277215E0,2.004179E0,4.6438136E0,6.0591464E0,2.4622406E1,2.0781908E0,3.194173E0,4.694828E0,3E0,1.9242487E0,2.3664985E0,3.992681E0,5.382245E0,5.586574E0,1.0381336E1,1.9643112E0,2.6817062E0,1E0,1E0,4.0208774E0,4.882044E0,4.986928E0,9.338282E0,1E0,1E0,2.2148461E0,3.194173E0,3.8938591E0,4.5740924E0,4.95477E0,5.4277215E0,1.0474407E1,5.847479E0,1.2441546E0,2.0605135E0,2.3942523E0,2.8953593E0,2.9601052E0,3.0530574E0,2.7626624E0,2E0,3.8828E0,4.5740924E0,4.799585E0,5.3105917E0,1.6174061E0,-1.491962E-1,1.0189802E1,1.9851309E0,2.0781908E0,1.8930176E1,2.9279885E0,2E0,3.3210714E0,1E0,4.531201E0,3E0,1E0,5.3105917E0,1.4277856E1,2E0,3E0,2E0,1.1346227E0,-1.5061326E-1,2.0412204E0,-1.438933E-1,2.352327E0,2.519308E0,2.7562053E0,2E0,3.8741333E0,3.1389666E0,8.115816E0,3.1389666E0,-1.3459817E-1,3.221273E0,3.2973173E0,3.944103E0,-1.5075213E-1,4.5850697E0,4.783149E0,3E0,4.95477E0,1E0,1.5062971E0,1.9021075E0,3E0,9.757055E0,1E0,1.6576706E1,2.6034303E0,2.2962896E1,1.621509E1,3.221273E0,3.2973173E0,3.8703673E0,3.964046E0,-1.4528224E-1,-1.5062672E-1,4.541378E0,4.6316175E0,8.466567E0,4.7084484E0,4.864916E0,5.0213776E0,1E0,2.0119656E1,1.0522591E1,2.1203857E1,8.043151E0,1.648261E1,3E0,7.9299253E-1,1E0,1E0,2E0,2.3379521E0,2.3664985E0,3E0,1E0,-1.4762355E-1,2.7917783E0,1E0,4.5812855E0,2.9922261E0,7.4551353E0,2E0,2E0,-1.1686086E-1,4.756644E0,3.272227E0,-1.5066701E-1,1E0,1E0,1E0,-1.4998186E-1,4.7084484E0,-1.4347783E-1,1E0,6.979176E0,4.899406E0,-1.502424E-1,5.382245E0,5.382245E0,1.1724821E0,-1.4427623E-1,1.8594182E0,-1.2819093E-1,-1.3030836E-1,9.542565E0,1.2108991E1,1.5733245E1,2.2052948E1,3E0,-7.676783E-2,1.0459528E1,-1.323303E-1,9.806221E0,3.7729907E0,1E0,1.3973961E1,3.9832268E0,1E0,-1.462772E-1,4.6192703E0,-1.3746914E-1,4.6560535E0,4.899406E0,4.6560535E0,2E0,2E0,5.180603E0,5.3440075E0,2E0,-1.093116E-1,9.626762E0,7.4193734E-1,-1.4998722E-1,1.2089603E0,-1.4371413E-1,2.0228713E0,-1.4552955E-1,1E0,-1.18257314E-1,2.2935443E0,1E0,-1.4409542E-1,1E0,2.4765384E0,-9.79939E-2,2.6034303E0,2E0,2E0,2.8267217E0,2.7066777E0,-1.2083592E-1,8.274129E0,1.0956061E1,3.110845E0,-1.3677722E-1,-1.3490547E-1,7.0523148E0,-1.4430763E-1,1E0,3.9343715E0,-1.4638808E-1,4.0116873E0,-1.4743742E-1,3.002744E0,-1.269925E-1,1E0,4.737426E0,4.832146E0,-1.4412335E-1,-1.4344007E-1,1E0,2.2081795E0,-1.370303E-1,-1.426881E-1,2E0,7.9299253E-1,1.3480731E0,1.7681496E0,6.5633564E0,1.936387E1,-9.3352884E-2,-1.501283E-1,3.7864597E0,5.194398E0,-1.2580504E-1,6.4955735E0,2.738229E0,2.5954928E0,-1.0843699E-1,4.5850697E0,2E0,6.1544538E0,4.681298E0,9.821254E0,5.9870677E0,6.2952724E0,1.3600852E1,-1.1995014E-1,1.2008441E1,5.184522E0,-1.0203308E-1,-1.4747131E-1,2E0,1.03926935E1,3.4876392E0,5.3440075E0,5.3440075E0,-1.4363904E-1,1E0,1.1724821E0,1.4743488E0,2.004179E0,-1.4083207E-1,1.3783096E0,4.488642E0,2.11505E0,2.308567E0,4.013656E0,8.802813E0,1.4831111E0,-1.4061196E-1,6.932269E0,2E0,4.494582E0,2.7593527E0,2.5618677E0,2.6034303E0,1E0,4.794373E0,-1.4459386E-1,2.8610573E0,4.472177E0,-1.1950614E-1,1.3432959E0,-1.3301252E-1,3.9241493E0,5.333352E0,3.9541242E0,1.4772873E0,2.9504604E0,-1.2587674E-1,4.7224197E0,2E0,4.816079E0,4.864916E0,1.4507965E0,-1.4086656E-1,-1.252162E-1,4.2743373E0,3.5077312E0,8.8376755E-1,4.9435806E0,1.3812819E0,1.6428727E0,1.7917595E0,1E0,3.8375149E0,1E0,1E0,1E0,8.863358E0,2.5165284E0,4.694828E0,1E0,5.214392E0,4.719486E0,-1.15387574E-1,-1.0950834E-1,9.103512E0,1.3507705E0,-1.3308522E-1,1.4398981E0,-1.4082052E-1,1.9851309E0,1.4415858E0,1E0,2.2470725E0,2E0,3E0,9.507004E0,-1.0897951E-1,4.3226995E0,-1.3891791E-1,-1.3185959E-1,3E0,1.30985E0,-1.1920298E-1,1E0,-1.4451312E-1,3.9045954E0,1.4281828E0,1.4287367E0,3.9832268E0,1E0,-1.432565E-1,4.7522964E0,4.7522964E0,2.7851648E0,3.994412E0,1.451045E0,2.737006E0,-1.3879117E-1,9.282193E-1,-1.2752424E-1,1.446919E0,6.207137E0,1.7439688E0,-1.2766892E-1,3.7324164E0,2.9857786E0,-1.0701713E-1,3.8238473E0,-1.4535172E-1,4.4579396E0,-1.02750316E-1,-1.4498326E-1,2E0,4.4650474E0,-8.496539E-2,4.418072E0,2.3610764E0,5.2787776E0,-1.3902597E-1,1.0372482E1,5.2787776E0,1.345282E0,-1.4096864E-1,2.1212678E0,6.2561316E0,2.166975E0,9.8615843E-1,5.9368644E0,-1.1509701E-1,2.5435967E0,-8.220309E-2,5.9521704E0,-8.202274E-2,1.3358955E0,-1.3272817E-1,2.2209969E0,3.1371539E0,4.3614027E-1,-1.4737833E-1,1.4903433E0,-1.2501374E-1,2.4343543E0,5.8121127E-1,-1.0502282E-1,3.856831E0,3.240962E0,5.784838E-1,3.4752269E0,1.9207503E0,3.6809704E0,5.8865137E0,-1.452703E-1,1.9705276E0,4.197415E0,-1.07596315E-1,2.6958065E0,-1.2539078E-1,-1.2350172E-1,5.473912E0],"split_indices":[0,4,4,0,0,0,0,0,0,0,0,0,0,0,0,0,6,0,0,0,0,0,0,0,0,6,6,0,0,0,0,6,6,0,0,0,0,0,0,0,0,0,0,0,0,0,0,0,6,0,0,0,0,0,0,0,0,0,0,0,6,0,6,0,6,6,0,0,6,6,6,0,0,0,0,0,0,0,6,0,0,0,0,0,0,0,0,0,0,0,6,0,6,0,0,6,0,6,0,0,0,0,0,0,0,0,0,0,0,0,0,0,0,0,6,0,0,0,0,0,6,0,6,6,6,0,0,6,6,0,0,6,0,0,0,6,6,0,0,0,0,6,6,6,0,0,0,6,0,0,0,0,0,0,0,0,0,0,0,0,0,0,6,0,0,0,0,0,6,0,0,6,0,0,0,0,0,0,6,6,0,0,6,0,0,0,0,0,0,0,0,6,0,0,6,0,6,0,0,0,6,6,0,0,0,0,0,0,0,0,0,0,6,0,0,0,0,0,0,6,0,0,0,0,6,0,0,0,6,0,0,0,0,0,0,0,0,0,0,0,0,0,0,0,6,0,0,0,0,0,0,0,0,0,0,0,6,0,0,0,0,0,6,0,0,0,0,0,0,0,0,0,0,0,0,0,6,0,0,0,0,6,0,0,0,0,0,0,0,0,0,0,0,0,0,0,6,0,0,0,0,0,0,0,0,0,0,0,0,6,0,6,6,6,0,0,0,6,0,0,0,0,0,0,0,0,0,0,0,6,0,6,6,0,0,0,0,0,6,0,0,6,0,0,0,0,0,6,0,0,0,0,0,0,0,0,0,0,0,0,0,0,0,0,0,0,0,0,0,0,6,0,0,0,0,0,0,0,0,0,0,0,0,0,0,0,0,0,0,0,0,0,0,0,0,0,0,0,0,0,0,0,0,0,0,0,0,0,0,0,0,0,0,0,0,0,0],"split_type":[0,0,0,0,0,0,0,0,0,0,0,0,0,0,0,0,0,0,0,0,0,0,0,0,0,0,0,0,0,0,0,0,0,0,0,0,0,0,0,0,0,0,0,0,0,0,0,0,0,0,0,0,0,0,0,0,0,0,0,0,0,0,0,0,0,0,0,0,0,0,0,0,0,0,0,0,0,0,0,0,0,0,0,0,0,0,0,0,0,0,0,0,0,0,0,0,0,0,0,0,0,0,0,0,0,0,0,0,0,0,0,0,0,0,0,0,0,0,0,0,0,0,0,0,0,0,0,0,0,0,0,0,0,0,0,0,0,0,0,0,0,0,0,0,0,0,0,0,0,0,0,0,0,0,0,0,0,0,0,0,0,0,0,0,0,0,0,0,0,0,0,0,0,0,0,0,0,0,0,0,0,0,0,0,0,0,0,0,0,0,0,0,0,0,0,0,0,0,0,0,0,0,0,0,0,0,0,0,0,0,0,0,0,0,0,0,0,0,0,0,0,0,0,0,0,0,0,0,0,0,0,0,0,0,0,0,0,0,0,0,0,0,0,0,0,0,0,0,0,0,0,0,0,0,0,0,0,0,0,0,0,0,0,0,0,0,0,0,0,0,0,0,0,0,0,0,0,0,0,0,0,0,0,0,0,0,0,0,0,0,0,0,0,0,0,0,0,0,0,0,0,0,0,0,0,0,0,0,0,0,0,0,0,0,0,0,0,0,0,0,0,0,0,0,0,0,0,0,0,0,0,0,0,0,0,0,0,0,0,0,0,0,0,0,0,0,0,0,0,0,0,0,0,0,0,0,0,0,0,0,0,0,0,0,0,0,0,0,0,0,0,0,0,0,0,0,0,0,0,0,0,0,0,0,0,0,0,0,0,0,0,0,0,0,0,0,0,0,0,0,0,0,0,0,0,0,0,0,0,0,0,0,0,0,0,0,0],"sum_hessian":[1.4838704E4,9.060963E3,5.7777417E3,5.327693E3,3.73327E3,9.1663403E2,4.8611074E3,2.1840012E3,3.1436914E3,2.0053864E3,1.7278838E3,3.5293948E2,5.636946E2,1.8307351E3,3.5326617E2,3.1178594E3,2.5832022E1,3.7495526E2,1.6304312E3,1.197803E3,5.3008075E2,2.8054236E2,7.239713E1,9.880963E2,8.4263885E2,3.0285828E2,5.0407913E1,2.4949497E3,6.229096E2,2.4101152E1,1.7308697E0,3.2634427E2,4.8611004E1,5.2410016E2,1.1063309E3,4.7423752E2,7.235655E2,4.6636655E2,6.371422E1,3.5384216E1,2.4515814E2,8.562402E2,1.3185612E2,6.773942E2,1.6524461E2,2.1831934E2,8.453893E1,3.4421555E1,1.598636E1,1.0623708E3,1.4325789E3,2.4609442E2,3.768152E2,2.3738701E2,8.895725E1,3.638561E1,1.2225394E1,2.3750478E2,2.865954E2,1.0551904E3,5.1140533E1,3.1708118E2,1.5715636E2,6.535354E2,7.003009E1,3.125486E2,1.5381792E2,2.4007725E1,3.9706493E1,1.9540318E2,4.9754974E1,2.7716916E2,5.79071E2,1.112412E2,2.0614923E1,4.767393E2,2.0065495E2,1.3966153E2,2.5583082E1,1.823952E1,2.000798E2,4.2648632E1,4.18903E1,8.270141E0,7.7162185E0,7.7592426E2,2.864466E2,1.2436404E3,1.8893849E2,1.3967308E2,1.0642133E2,3.1884216E2,5.7973026E1,1.5230138E2,8.508563E1,8.009731E0,4.215663E0,6.600036E1,1.7150443E2,5.5126685E2,5.0392358E2,4.6234253E1,4.9062805E0,1.9088423E1,2.9799274E2,1.3117189E2,2.5984472E1,6.107185E2,4.2816837E1,6.802298E1,2.0071166E0,2.4107512E2,7.1473495E1,1.24104034E2,2.9713888E1,3.5864914E1,3.8415787E0,1.9324068E2,2.1625054E0,4.5474575E1,4.280398E0,2.1285254E2,6.431663E1,8.708397E1,2.4157234E1,4.111508E2,6.558851E1,9.6334206E1,1.0432075E2,4.5425346E1,9.423618E1,2.1107008E1,4.476073E0,1.5702689E2,4.305292E1,2.3691069E1,1.8199232E1,3.4358206E0,4.280398E0,4.5769226E1,7.30155E2,1.2790243E2,1.5854416E2,2.070415E1,1.6823434E2,1.2027249E2,1.9400587E1,1.0378691E2,2.634427E0,8.072311E1,2.3811905E2,3.0804424E1,2.7168602E1,1.3043184E2,2.1869545E1,7.943408E1,5.651551E0,6.336413E0,1.6733183E0,4.1040134E1,2.4960222E1,3.262073E2,2.2505951E2,1.0359257E0,3.8703544E0,7.136378E0,1.1952045E1,2.746671E2,2.3325638E1,1.0479888E2,2.6373007E1,1.0990895E1,3.1825943E1,5.776731E1,1.0255665E1,4.9281376E1,1.9179375E2,6.0107048E1,1.1366449E1,3.4917965E1,8.9186066E1,1.4910189E1,1.4803699E1,2.6301005E0,1.6502976E0,4.359378E1,1.6925876E2,4.4242683E1,2.007394E1,5.985063E1,2.7233337E1,2.0531494E1,3.6257403E0,3.8302963E2,2.8121141E1,2.1259499E1,4.432901E1,9.448105E1,1.8531561E0,7.2314926E1,3.200582E1,2.4744259E1,6.949193E1,1.7084164E1,4.0228453E0,2.3481068E1,1.3354582E2,1.3987896E1,9.703172E0,8.44855E0,9.750683E0,2.1978891E1,2.3790333E1,9.526501E1,3.2637417E1,1.15633804E2,4.2910347E1,1.5386396E1,5.3177524E0,2.0698393E1,9.9574104E1,8.2435326E1,2.1351582E1,1.9296995E1,6.1426113E1,2.0905579E1,9.898847E0,1.743233E1,9.736274E0,6.578133E1,6.4650505E1,6.5063446E1,1.4370634E1,2.2343655E2,1.6229504E0,2.0149907E2,7.316804E1,1.8307152E1,5.018485E0,1.840356E1,7.9694448E0,8.435612E0,2.5552835E0,4.4408154E1,1.3359158E1,1.128155E1,3.7999825E1,1.5919078E2,3.260297E1,3.0200217E0,5.7087025E1,3.8789666E0,7.4874825E0,3.282885E1,2.089117E0,4.334774E1,4.583833E1,8.788145E0,6.122044E0,7.57234E0,7.231358E0,1.9855244E1,2.3738537E1,2.9298006E1,1.4944678E1,4.5825348E1,1.4025284E1,1.5946074E1,4.5854206E0,3.0733646E2,7.56932E1,1.7594942E1,1.0526198E1,3.0626015E1,1.3702996E1,6.0853622E1,3.3627426E1,3.785309E1,3.4461838E1,1.6412241E1,1.5593581E1,2.0504147E1,4.2401123E0,2.3026329E1,4.64656E1,1.0177992E1,3.8099048E0,1.6343178E1,7.4471555E0,7.7447044E1,1.7817965E1,1.007179E2,1.4915903E1,1.5662643E1,5.0357504E0,3.843142E1,6.1142685E1,3.4282E1,4.8153324E1,4.7349033E1,1.4077081E1,4.8803616E0,4.855912E0,1.3124625E1,5.2656704E1,3.442878E1,3.0221727E1,4.0619884E1,2.4443563E1,9.701743E0,6.346629E1,1.234768E1,3.2060474E1,1.1484409E1,1.8747482E0,1.8373316E1,1.9626509E1,3.380861E1,1.2029719E1,4.320684E0,3.2516558E0,2.6473658E0,4.5839925E0,1.6256851E1,7.481686E0,1.5289988E1,1.40080185E1,3.0552628E1,1.5272721E1,5.2210743E1,2.551257E2,2.7633383E1,4.8059814E1,3.1026102E1,2.6013248E0,4.792606E0,1.1619635E1,6.9349475E0,8.658633E0,1.6740284E1,3.7638636E0,2.3744293E1,2.2721306E1,6.20362E1,1.5410845E1,1.540509E1,8.531281E1,1.962361E1,1.8807808E1,5.3386177E1,7.7565045E0,1.660073E1,1.768127E1,3.125908E1,1.6894243E1,1.1487266E1,4.1169437E1,5.461631E0,2.4760096E1,7.1277657E0,3.349212E1,5.501917E0,1.8941647E1,7.2615623E0,2.4401808E0,3.7142265E1,2.6324026E1,1.02125225E1,2.135158E0,2.4614748E1,7.445727E0,1.0195257E1,1.2891521E0,1.031036E1,9.316149E0,2.2073874E1,1.1734737E1,3.9106405E0,8.119079E0,1.6320158E1,1.423247E1,3.308203E1,1.912871E1,1.8801927E2,6.710644E1,2.4416258E1,3.2171252E0,4.6862743E1,1.1970698E0,7.467319E0,1.1913147E0,1.6429506E1,7.314787E0,3.1649002E1,3.0387197E1,4.3144882E1,4.2167934E1,1.4789289E1,4.8343205E0,1.8989117E1,3.4397064E1,2.290547E0,5.4659576E0,6.640007E0,3.452943E1,1.3251238E1,1.1508858E1,2.5932716E1,7.5594015E0,2.592692E1,1.1215345E1,4.959505E0,2.4862218E0,1.7153225E1,4.9206476E0,4.5120325E0,3.6070464E0],"tree_param":{"num_deleted":"0","num_feature":"9","num_nodes":"417","size_leaf_vector":"1"}},{"base_weights":[-5.5069885E0,-3.0997005E0,-9.508719E0,-2.4155154E0,-3.319675E0,-7.8283625E0,-2.5643654E1,-2.5289214E0,9.5093805E-1,-3.111372E0,-4.061232E0,-7.308699E0,-9.22293E0,-2.0170174E1,-3.973608E1,-2.351566E0,-3.6434019E0,1.3089806E0,-8.391233E-1,-3.1940062E0,-1.7348567E0,-4.3880877E0,-3.466911E0,-8.724653E0,-6.7219987E0,-1.066147E1,-8.871649E0,-2.1119097E1,-4.2520323E0,-2.951354E1,-4.5307274E1,-2.0923867E0,-3.2552164E0,-4.2220864E0,2.0449263E-1,4.8423234E-1,3.0997033E0,-2.972728E0,-3.584298E0,-1.1318184E0,-4.0550785E0,-3.974468E0,-5.3072724E0,-4.5509114E0,-2.365196E0,-1.7017797E0,-8.695059E0,-6.4092803E0,-8.685771E0,-1.0927721E1,-8.620429E0,-5.117692E0,-9.445008E0,-1.8399265E1,-2.7650043E1,-3.9551756E0,-1.2831855E0,-3.3264748E1,-1.5395048E1,-4.827905E1,-3.040344E1,-4.059089E0,-1.9430937E0,-3.4648316E0,-1.3661702E0,-7.456539E-1,-3.801155E0,9.458205E-1,-9.0444505E-1,1.3040129E0,-6.5960217E-1,1.0779285E0,-1.5801825E-1,-3.0612023E0,-1.2516727E0,-4.3729105E0,-3.1427162E0,-1.7450829E0,4.1673264E-1,-5.880694E-1,-7.69623E-1,-4.0857353E0,-1.3597833E0,-8.5423416E-1,-4.969047E0,-2.9236357E0,-4.9307957E0,1.6323253E0,-2.6186457E0,-8.875347E0,-8.5059595E0,-6.682166E0,-3.8360627E0,-9.033441E0,-1.2630296E0,-9.5995655E0,-1.7514333E0,-1.040108E0,-1.4576004E0,-8.949593E0,-1.1177987E0,-1.09191675E1,-8.864108E0,-2.57857E1,-1.4351473E1,-3.1675322E0,-3.0947565E1,-1.484605E-1,-1.0538956E0,-3.0595205E1,-5.80836E0,-1.0369205E1,-3.1169462E0,-7.5862846E0,-5.305707E0,-4.7897496E0,-2.8735733E0,-7.2522736E-1,-3.0419803E0,-2.1501074E0,-8.157784E-1,-2.6657305E0,-4.342467E0,-6.019503E-1,3.0668083E-1,-2.3196015E0,-6.794255E-1,-7.8082013E-1,4.668744E0,-6.57606E-1,1.6577317E0,-2.563282E-1,1.5517262E-2,-2.9544506E0,-3.7154603E0,2.1373153E0,-3.075145E0,-4.0949106E0,-4.859799E0,8.0986893E-1,-3.3063014E0,-7.768719E-1,-2.8658113E0,-3.1985679E0,-4.3749013E0,3.6105525E-2,-3.3707469E0,-7.073264E-1,-8.5247386E-1,-4.578174E0,1.0652379E0,-9.177881E-1,-4.8738236E0,-9.0478826E-1,-3.4350934E0,-1.323411E0,-1.6983137E0,-8.270804E0,-1.3378983E0,-6.3233223E0,-1.0438976E1,-1.5169072E0,-5.2868013E0,-8.421931E0,-1.4392715E0,-8.833138E0,-1.6461776E0,-6.6773157E0,-1.7335826E0,-1.2230377E0,-6.911306E-1,-1.4414338E0,-1.7222598E0,-3.9937513E0,-9.256497E0,-2.8868935E0,-2.9314392E1,-5.866528E0,-1.5960477E1,-2.8365715E1,-4.6679905E1,-4.720534E0,-2.2527242E0,-8.332768E-1,-2.1903107E0,1.8317984E0,-7.2826874E-1,-2.540742E0,-1.8327055E0,-1.3897847E0,5.205265E0,-1.451424E0,-3.7673454E0,-4.1696763E0,-5.1436205E0,-3.6384404E0,1.8046404E1,2.1418178E0,-6.7206E-1,9.237723E-1,-4.3178874E-1,3.9900404E-1,8.765682E-1,-3.0637345E0,-4.6409628E-1,-2.0019705E0,-4.062628E0,-3.105825E0,3.990094E0,-2.5116806E0,-7.5915664E-1,-4.3478584E0,-2.802634E0,-5.5505795E0,-4.252137E0,2.8329998E-1,-3.6311848E0,-4.496546E0,-3.106782E0,-1.6918749E0,3.1912878E-1,-5.326462E-1,-2.658077E-1,-3.6919372E0,2.78446E0,-4.0132594E0,-4.7462997E0,8.471806E-2,-6.081356E-1,-2.7037318E0,-6.208347E-1,-6.5336394E-1,-8.717005E-1,-4.8889062E-1,-7.346784E-1,-1.7317176E0,1.2231264E0,-8.1709725E-1,-2.132378E0,-8.398265E0,-1.0764891E0,-6.821257E0,-4.372922E0,-1.7154282E0,-7.3882546E0,-4.9304714E0,-1.04690865E-2,-8.543802E0,-2.4664247E0,-1.7217497E0,-1.2314305E0,-1.4510787E0,-7.868497E0,-1.7306875E0,-3.3250456E0,2.4328502E-1,-1.5551503E0,-1.4977071E0,-2.9403136E0,-8.407022E0,-1.0321333E1,-4.5562015E0,-2.2869516E1,-2.9791584E0,-3.3161793E0,-2.360582E1,-1.3148436E1,-4.527234E0,-2.7874959E0,-7.8450704E0,-3.029833E0,-2.1779687E0,-3.8154612E0,7.307759E-1,-2.1545205E0,-2.2232478E0,1.9736825E-1,7.041998E0,3.744486E0,-6.143627E-1,-5.364578E-1,-6.578038E-1,-2.5664756E0,-6.440382E-1,-4.7539774E-1,-3.3693063E-1,-7.8804034E-1,-2.74219E0,-7.0794654E-1,3.451782E0,-8.038142E-1,-5.533E-1,6.16319E-1,-6.3781464E-1,2.613055E-1,-3.8143084E0,-2.969225E0,-7.5539094E-1,-9.759105E-2,-6.845362E-1,-8.0770475E-1,-4.5785327E0,-3.4762373E0,-5.8857733E-1,-2.9177916E-1,4.535772E0,-5.3311485E-1,-4.3977613E0,-1.7088108E0,-2.5534484E0,-4.579472E0,-1.5697576E0,-3.590075E0,-7.5121266E-1,-8.775052E-1,-3.4310877E0,-8.553065E-1,-6.334039E-1,-3.636329E-1,-3.607351E0,-7.972174E-1,3.539626E0,-3.1839185E0,1.800143E-1,-4.1629767E-1,1.2370379E0,-1.0293137E0,3.5115163E0,-3.9795012E0,-2.8805542E0,-4.801444E0,-5.2513766E-1,8.901014E-1,-7.030212E-1,-3.432823E0,-4.520678E0,-5.054809E0,-3.067266E-1,-6.040418E-1,-5.7100874E-1,-5.096108E0,-7.5517315E-1,-7.740851E-1,-1.2445908E0,-1.5579418E0,-6.551901E0,-9.529964E0,-2.5652063E0,-5.884964E0,-3.3400118E0,-1.6522317E0,-1.9667023E0,-1.8581194E-1,4.4618938E-2,-7.057503E-2,-5.2524114E0,-1.5378226E0,-3.7928474E-1,-6.060245E0,-8.887919E-1,-1.2682346E0,-2.8811765E-1,-1.4133716E0,-1.9445999E-1,-7.2540784E-1,-3.8194826E-1,-1.2995845E0,-1.0148948E1,-6.097117E0,-1.1225682E1,-5.493603E0,-3.67644E0,-8.689523E-1,-2.0682735E0,-2.1494327E-1,-1.8224665E1,-3.8948328E0,-1.5562143E1,-3.2521834E0,-2.5632753E0,1.4320163E0,-2.569177E0,-4.2033525E0,2.1357542E-2,7.07363E0,-2.692392E0,-1.1899046E0,-6.540217E-1,-4.1453567E0,6.47028E0,-2.0801709E0,1.6621433E0,-4.843559E-1,-6.873736E-1,8.854371E-1,3.0193958E-1,-5.6461465E-1,-1.2664243E0,-5.637302E-1,-5.947832E-1,-1.9626454E0,-4.3268967E0,-3.1795793E0,-3.609898E-1,-3.0351121E0,3.2221097E-1,-6.9581103E-1,-6.976231E-1,9.815805E-1,-4.6875877E0,-3.756402E0,-3.7433033E0,-1.3881211E0,3.8242748E0,1.1303008E0,-5.908624E-1,-8.2151407E-1,-6.9681174E-1,-1.0811387E0,1.9401705E-1,-7.142624E-1,-5.1082525E0,-4.0234423E0,-6.21113E-1,-6.525572E-1,-7.33755E-1,-2.2643802E0,-2.7807493E0,-8.524839E-1,-4.653512E0,-2.6385274E0,6.8710294E0,-5.945464E-1,-2.165599E0,-3.49492E0,-2.546835E0,1.9233903E-1,-1.5046587E0,8.7030575E-2,-4.92752E-1,-4.487145E0,-1.2749637E0,-3.9012394E0,-7.3088175E-1,-4.4600722E-1,-1.5355754E0,-4.1210375E0,-7.195082E-1,-2.5949092E0,-7.837562E-1,-4.3227334E0,-7.438333E-1,3.3266217E-2,-4.269074E-1,-7.9610413E-1,2.7766895E-1,-1.6064999E0,-6.7098136E0,-2.046688E0,-1.0684526E1,-8.027944E0,-3.8513691E0,-1.810006E0,-1.6519433E0,-4.6231756E0,-6.888628E-2,-1.4768558E0,-2.53871E-1,-1.5615075E0,-1.4269679E0,9.9351905E-2,-5.1171184E-1,-2.0812738E0,-7.256468E0,-1.1880747E1,-1.6122895E0,-4.919546E0,-1.02078495E1,-1.1714775E1,-2.9631717E0,-1.6477423E0,-1.5045866E0,-2.9570768E0,-1.181934E1,-4.483335E0,9.7521955E-1,-3.4247284E0,-3.651515E0,-1.6069398E0,3.4454658E0,-5.6640327E-1,-6.8510324E-1,-1.2910581E0,-5.7313794E-1,-6.6784E-1,4.874031E-1,-1.2773572E0,-5.699073E-1,1.3811681E1,-2.2789683E0,-6.244456E-1,-3.2456252E-1,-2.8088515E0,-2.7453766E0,4.2120366E0,-3.2405982E0,-6.927464E-1,5.985962E-1,2.002449E0,-3.353636E-1,-4.4303446E0,-3.3878046E-1,2.111001E0,-5.797632E-1,2.9670212E-3,-5.919965E-1,-1.8175648E-1,-7.6174784E-1,-4.1523705E0,-2.0149724E0,-3.811002E0,3.1504688E0,-6.284462E-1,-2.9668858E0,-3.9829297E0,-7.4104446E-1,2.3441076E0,1.942215E-1,8.817427E-2,-6.2182075E-1,-7.237464E-1,-6.788689E-1,-2.852608E0,-6.879694E-1,-2.738828E0,1.4929326E0,-8.116766E-1,7.520525E-1,-6.24646E-1,1.8186746E0,-1.9908284E0,-3.893555E0,1.847616E0,-7.870826E-1,-4.5907245E0,-7.3137754E-1,-3.077588E0,-3.1896925E-4,-5.464262E-1,-1.2277155E0,-6.3257444E-1,-8.143371E-1,-1.8184744E0,-8.1035846E-1,-3.074968E0,-1.1611978E0,-7.3494005E-1,-5.144292E-1,1.5552537E0,-3.5636997E0,-1.065752E0,-3.2766364E0,-4.613713E0,-4.2492643E-1,-2.3296602E-1,8.814744E-2,-2.3388164E0,-7.112186E-1,-3.6696154E-1,-7.1067953E-1,1.4135078E-1,-3.3797557E0,-4.8970294E0,-3.7339854E0,1.3003616E0,-7.476995E-1,-2.9366004E0,-5.845226E-2,-6.0129666E-1,-3.9436725E-1,-6.7279553E-1,2.8575903E-1,-9.811675E-1,-3.3045378E0,2.3625E-1,-6.49247E0,-1.0209208E1,-2.738265E-1,-3.3998314E-1,-1.8667365E0,-1.0256661E1,-4.344831E0,-1.5166516E0,-4.220924E0,-3.4523542E0,-1.1966903E0,-2.6317194E0,-1.3502966E0,-5.8362627E0,-1.3783184E0,-4.8992825E0,-1.8295321E0,-1.5116798E0,-4.3789163E0,-1.45104E0,-1.630498E0,-1.3301892E0,-1.8938283E0,-1.6663076E0,-1.0351735E1,1.4907694E-1,-2.2071683E0,-1.6348822E1,-1.7588058E0,4.0610966E-1,-6.216409E-1,-3.4235734E-1,2.1382533E-2,-4.5153955E-1,-9.84926E-2,1.0379759E0,-8.5095406E-2,-5.8464766E-1,-1.4925982E-1,-6.3020825E-1,3.4629667E0,-5.431752E-1,-2.4165472E-1,-5.079002E-1,-7.33087E-1,-1.4251999E-2,-1.2667777E-1,-6.9127566E-1,4.8369014E-1,-6.460656E-1,-4.8592263E-1,9.008622E-1,-5.25855E-1,-3.0938894E-1,-6.283462E-1,3.4725702E-1,-4.8981628E-1,-7.622909E-1,-7.134202E-1,1.1370131E-1,8.716916E-1,-5.6510335E-1,-6.3962203E-1,-4.9645483E-1,-6.0370183E-1,4.996442E-2,-4.7962052E-1,-6.3507473E-1,-1.3355559E-1,8.14823E-1,-4.5598182E-1,1.19743116E-1,-3.7248576E-1,-6.807463E-1,2.053696E-1,-2.0259611E-1,4.8157302E-1,-7.688211E-1,-1.682866E-1,-6.042419E-1,-1.11783125E-1,-6.9354194E-1,1.1610062E0,-7.159744E-1,-7.1608114E-1,-1.2621774E-1,-8.320671E-1,-3.3419088E-1,-7.425345E-1,-5.823728E-1,5.9553134E-1,-6.077631E-1,-5.889971E-1,-6.805503E-2,1.5936881E-1,-4.4900668E-1,-1.6106677E-1,-6.447941E-1,-8.684178E-1,-7.128873E-2,-2.8283447E-1,-6.3924533E-1,-8.1750326E-2,-7.453955E-1,-5.213534E-1,-1.274722E-1,-3.726054E-1,-7.5833786E-1,-3.8630673E-1,-2.893616E-1,-6.539725E-1,-1.3912325E-1,-7.6908225E-1,-4.500715E-1,-1.6941984E-1,-7.4689645E-1,4.9555263E-1,-7.8234905E-1,-8.077914E-1,1.8907449E-1,-2.8848213E-1,-7.1471304E-1,-9.986575E-1,-5.9473976E-2,-1.3599654E0,-1.6346056E0,-1.4159914E0,-1.6887428E0,-3.1786972E-1,-1.8811404E0,-2.4546967E-1,-2.000692E0,-1.5758182E0,-2.2291656E-1,-1.2135843E0,-9.8861136E-2,2.9634567E-2,-7.5746375E-1,-2.9173592E-1,-7.758345E-2,-1.4612266E0,-7.1521497E-1,-1.5619899E0,-3.8494214E-1,-7.270871E-1,-5.7434124E-1,-9.198305E-1,-1.6461521E0,-9.958728E-1,-2.6689997E-1,-3.5705411E0,-7.333653E-1],"categories":[],"categories_nodes":[],"categories_segments":[],"categories_sizes":[],"default_left":[0,0,0,0,0,0,0,0,0,0,0,0,0,0,0,0,0,0,0,0,0,0,0,0,0,0,0,0,0,0,0,0,0,0,0,0,0,0,0,0,0,0,0,0,0,0,0,0,0,0,0,0,0,0,0,0,0,0,0,0,0,0,0,0,0,0,0,0,0,0,0,0,0,0,0,0,0,0,0,0,0,0,0,0,0,0,0,0,0,0,0,0,0,0,0,0,0,0,0,0,0,0,0,0,0,0,0,0,0,0,0,0,0,0,0,0,0,0,0,0,0,0,0,0,0,0,0,0,0,0,0,0,0,0,0,0,0,0,0,0,0,0,0,0,0,0,0,0,0,0,0,0,0,0,0,0,0,0,0,0,0,0,0,0,0,0,0,0,0,0,0,0,0,0,0,0,0,0,0,0,0,0,0,0,0,0,0,0,0,0,0,0,0,0,0,0,0,0,0,0,0,0,0,0,0,0,0,0,0,0,0,0,0,0,0,0,0,0,0,0,0,0,0,0,0,0,0,0,0,0,0,0,0,0,0,0,0,0,0,0,0,0,0,0,0,0,0,0,0,0,0,0,0,0,0,0,0,0,0,0,0,0,0,0,0,0,0,0,0,0,0,0,0,0,0,0,0,0,0,0,0,0,0,0,0,0,0,0,0,0,0,0,0,0,0,0,0,0,0,0,0,0,0,0,0,0,0,0,0,0,0,0,0,0,0,0,0,0,0,0,0,0,0,0,0,0,0,0,0,0,0,0,0,0,0,0,0,0,0,0,0,0,0,0,0,0,0,0,0,0,0,0,0,0,0,0,0,0,0,0,0,0,0,0,0,0,0,0,0,0,0,0,0,0,0,0,0,0,0,0,0,0,0,0,0,0,0,0,0,0,0,0,0,0,0,0,0,0,0,0,0,0,0,0,0,0,0,0,0,0,0,0,0,0,0,0,0,0,0,0,0,0,0,0,0,0,0,0,0,0,0,0,0,0,0,0,0,0,0,0,0,0,0,0,0,0,0,0,0,0,0,0,0,0,0,0,0,0,0,0,0,0,0,0,0,0,0,0,0,0,0,0,0,0,0,0,0,0,0,0,0,0,0,0,0,0,0,0,0,0,0,0,0,0,0,0,0,0,0,0,0,0,0,0,0,0,0,0,0,0,0,0,0,0,0,0,0,0,0,0,0,0,0,0,0,0,0,0,0,0,0,0,0,0,0,0,0,0,0,0,0,0,0,0,0,0,0,0,0,0,0,0,0,0,0,0,0,0,0,0,0,0,0,0,0,0,0,0,0,0,0,0,0,0,0,0,0,0,0,0,0,0,0,0,0,0,0,0,0,0,0,0,0,0,0,0,0,0,0,0,0,0,0,0,0,0,0,0,0,0,0,0,0,0,0,0,0,0,0,0,0,0,0,0,0,0,0,0,0,0,0,0,0,0,0,0,0,0,0,0,0,0,0,0,0,0,0,0,0,0,0,0,0,0,0,0,0,0,0,0,0,0,0,0,0,0,0,0,0,0,0,0,0,0,0,0,0,0,0,0,0,0,0,0,0,0,0,0,0,0,0,0,0,0,0,0,0,0,0,0,0,0,0,0,0,0,0,0,0,0,0,0,0,0,0,0,0,0,0,0,0,0,0,0,0,0,0,0,0,0,0,0,0,0,0,0,0],"id":1,"left_children":[1,3,5,7,9,11,13,15,17,19,21,23,25,27,29,31,33,35,-1,37,39,41,43,45,47,49,51,53,55,57,59,61,63,65,67,69,71,73,75,77,79,81,83,85,87,-1,89,91,93,95,97,99,101,103,105,-1,107,109,111,113,115,117,119,121,123,-1,125,127,-1,129,-1,-1,131,133,135,137,139,141,-1,-1,-1,143,145,-1,147,149,151,-1,153,155,157,159,161,163,-1,165,-1,-1,-1,167,169,171,173,175,177,-1,179,-1,-1,181,-1,183,-1,-1,-1,-1,-1,-1,185,187,189,191,193,-1,-1,195,-1,197,199,-1,201,-1,-1,203,205,207,209,211,213,215,217,219,221,223,225,227,229,-1,-1,231,-1,-1,233,235,237,-1,-1,239,-1,241,243,245,247,249,-1,251,-1,253,-1,-1,255,-1,-1,257,259,-1,261,263,265,267,269,-1,-1,-1,-1,-1,-1,271,273,275,277,279,281,283,285,287,289,291,-1,-1,-1,-1,293,295,297,299,301,303,305,307,-1,309,311,313,315,-1,317,319,321,323,325,-1,327,329,331,333,335,-1,-1,337,-1,-1,-1,-1,-1,339,-1,-1,341,343,-1,345,347,-1,349,351,353,355,357,-1,-1,-1,359,-1,361,-1,363,-1,365,367,369,-1,371,373,-1,375,377,-1,-1,-1,-1,379,381,383,385,387,389,391,393,-1,395,-1,397,-1,-1,-1,-1,399,-1,-1,-1,-1,-1,-1,-1,401,403,-1,405,407,-1,409,411,-1,-1,413,-1,415,417,419,421,423,425,-1,-1,427,-1,-1,-1,429,-1,431,433,435,-1,-1,437,-1,439,441,443,-1,-1,-1,445,447,449,-1,-1,451,453,455,-1,-1,-1,457,459,461,463,465,-1,-1,-1,-1,-1,467,-1,469,471,-1,-1,-1,-1,-1,-1,-1,-1,473,475,477,479,-1,-1,-1,-1,481,-1,483,485,487,489,491,493,495,497,499,501,503,505,507,509,-1,-1,-1,-1,511,-1,513,-1,-1,515,517,519,521,523,525,-1,-1,527,529,531,533,535,537,-1,-1,-1,-1,539,541,-1,543,545,-1,547,-1,549,551,-1,553,555,557,-1,559,561,563,-1,565,-1,-1,567,569,571,-1,-1,573,575,-1,577,-1,579,-1,581,-1,-1,-1,583,585,587,589,591,593,595,-1,597,-1,-1,-1,-1,-1,-1,-1,-1,599,601,-1,603,605,607,609,-1,-1,-1,611,-1,613,-1,615,617,619,-1,-1,621,-1,-1,-1,623,-1,625,627,-1,629,631,633,635,637,-1,-1,-1,639,641,643,645,-1,-1,-1,-1,-1,647,649,651,653,-1,655,657,659,661,-1,-1,-1,-1,-1,663,-1,665,-1,-1,-1,-1,667,669,671,-1,-1,673,-1,675,-1,-1,677,-1,-1,679,-1,681,683,-1,-1,-1,685,687,689,691,-1,-1,-1,693,-1,-1,-1,-1,695,697,699,-1,-1,701,-1,-1,-1,-1,-1,703,705,-1,707,709,-1,-1,-1,711,713,-1,715,717,719,721,723,725,-1,727,-1,-1,729,-1,-1,-1,-1,-1,731,-1,733,735,-1,-1,-1,-1,-1,-1,-1,-1,-1,-1,-1,-1,-1,-1,-1,-1,-1,-1,-1,-1,-1,-1,-1,-1,-1,-1,-1,-1,-1,-1,-1,-1,-1,-1,-1,-1,-1,-1,-1,-1,-1,-1,-1,-1,-1,-1,-1,-1,-1,-1,-1,-1,-1,-1,-1,-1,-1,-1,-1,-1,-1,-1,-1,-1,-1,-1,-1,-1,-1,-1,-1,-1,-1,-1,-1,-1,-1,-1,-1,-1,-1,-1,-1,-1,-1,-1,-1,-1,-1,-1,-1,-1,-1,-1,-1,-1,-1,-1,-1,-1,-1,-1,-1,-1,-1,-1,-1,-1,-1,-1,-1,-1,-1,-1,-1,-1,-1,-1,-1,-1,-1,-1,-1,-1],"loss_changes":[3.3504262E5,3.2608281E3,3.540015E5,2.0211738E3,2.5256875E3,8.5083125E3,9.4212125E4,1.0026113E3,4.128589E2,1.4542109E3,6.841797E2,7.1071562E3,1.5268438E3,1.3342156E4,1.8228875E4,1.0275098E3,1.5607246E3,2.4202087E2,0E0,1.0347812E3,1.0153557E3,8.606172E2,1.5205889E3,9.7078125E1,3.6922812E3,2.4532812E2,5.515203E3,1.4393625E4,3.3330823E3,6.058133E3,8.2983125E3,1.00060156E3,3.843203E2,1.7308984E2,4.3334515E2,4.6225455E2,6.908584E2,1.1733906E3,1.5098164E3,1.3955471E3,1.6052246E0,4.6091602E2,6.566797E1,3.8445996E2,2.1706611E3,0E0,9.71875E0,3.6739219E3,1.0859375E0,4.3364062E2,7.474609E1,5.2728135E3,1.8224219E3,1.7428094E4,4.617547E3,0E0,7.100642E1,2.3075781E2,5.396621E2,3.6094375E3,6.472656E1,1.7577832E2,7.437012E2,6.0820703E2,9.090304E2,0E0,4.1478076E2,5.408006E2,0E0,2.053389E2,0E0,0E0,1.22631E1,5.0254688E2,2.3529941E3,1.9232031E2,1.8184023E3,5.424418E2,0E0,0E0,0E0,3.8041797E2,1.8804257E2,0E0,4.391992E1,2.09891E3,5.479492E0,0E0,8.7402E2,6.1867188E1,4.715625E1,6.3537656E3,1.6994526E3,3.876367E1,0E0,1.1749414E2,0E0,0E0,0E0,9.650137E2,5.04038E2,3.5322656E2,3.0455703E3,4.2698906E3,5.1871094E3,0E0,5.1932812E3,0E0,0E0,4.8157422E2,0E0,2.5365149E2,0E0,0E0,0E0,0E0,0E0,0E0,3.0229758E3,3.298789E2,1.725584E3,6.167693E2,3.663623E1,0E0,0E0,3.6096199E3,0E0,6.3611285E2,3.1702393E2,0E0,7.080301E1,0E0,0E0,1.7202344E3,6.030928E2,1.3084758E3,2.639878E2,3.1612695E2,2.1335156E2,5.45395E2,6.264551E2,2.719815E2,4.128452E2,1.1368564E3,1.3632227E2,8.988185E1,2.868988E0,0E0,0E0,4.182373E0,0E0,0E0,3.5429688E0,1.5394646E3,1.1004263E3,0E0,0E0,5.223828E1,0E0,4.1941406E3,1.1739688E3,1.0114378E3,2.8431045E3,1.927539E1,0E0,3.3999023E1,0E0,1.5316685E3,0E0,0E0,3.2461377E2,0E0,0E0,7.40739E2,1.2627812E3,0E0,2.2205469E2,2.8996924E3,6.667422E3,1.9327969E3,2.0797852E3,0E0,0E0,0E0,0E0,0E0,0E0,5.4981885E2,1.2325762E3,6.0194E2,9.0302E1,5.3707196E2,1.692876E2,2.9830078E1,1.05563965E1,1.0794629E2,1.0754226E3,3.941577E2,0E0,0E0,0E0,0E0,2.4703749E2,4.1853906E2,4.4708173E2,7.765549E2,2.4226172E2,2.5975677E1,4.2375818E2,2.871775E2,0E0,3.366543E2,1.5671326E2,1.3087891E1,3.4303564E2,0E0,5.691559E0,2.6088672E2,1.1970215E3,2.9999765E2,1.3340319E3,0E0,4.4477173E3,3.0395898E2,6.076133E2,2.1557617E2,1.6492188E1,0E0,0E0,7.08461E0,0E0,0E0,0E0,0E0,0E0,7.289513E2,0E0,0E0,1.0768907E3,5.771875E1,0E0,2.4642031E3,2.410334E3,0E0,1.500831E3,1.8026288E3,1.9614145E1,7.574912E2,1.2616316E3,0E0,0E0,0E0,2.8059082E1,0E0,4.8221118E2,0E0,9.377457E1,0E0,2.1515253E2,3.299086E3,2.8096797E3,0E0,5.021494E2,8.9695294E2,0E0,6.190664E2,5.671301E3,0E0,0E0,0E0,0E0,1.3137793E3,1.1781885E2,7.521111E2,6.847788E2,8.9679944E2,2.2633796E3,7.877959E2,5.0076E2,0E0,4.5234717E2,0E0,1.27036316E2,0E0,0E0,0E0,0E0,5.9525085E1,0E0,0E0,0E0,0E0,0E0,0E0,0E0,2.0559375E2,9.2460156E2,0E0,4.748636E2,8.4481213E2,0E0,2.2813477E1,2.1986475E2,0E0,0E0,1.691936E2,0E0,6.869751E0,2.495968E2,5.9598676E2,1.9733887E2,1.5518875E2,1.6367517E2,0E0,0E0,2.727024E2,0E0,0E0,0E0,1.7783813E2,0E0,7.023364E2,7.166719E2,1.6881064E2,0E0,0E0,8.262956E1,0E0,6.539917E-1,3.3327014E2,4.698242E0,0E0,0E0,0E0,4.1413794E2,1.6613135E2,6.1132812E0,0E0,0E0,3.7261035E2,7.6853027E0,4.008283E2,0E0,0E0,0E0,2.2294219E3,4.535879E2,3.873147E2,3.070537E3,9.498762E2,0E0,0E0,0E0,0E0,0E0,9.252811E2,0E0,1.030634E3,1.2327988E3,0E0,0E0,0E0,0E0,0E0,0E0,0E0,0E0,2.2915938E3,1.9278076E3,1.5567969E2,1.4364558E3,0E0,0E0,0E0,0E0,1.6316504E2,0E0,9.958871E3,4.014539E3,8.8020703E2,9.7224506E2,1.6195633E2,2.1535645E0,6.387096E2,1.2843357E3,5.076045E2,6.6661615E2,1.694485E3,4.231079E1,6.66437E2,4.7537863E2,0E0,0E0,0E0,0E0,1.5520737E2,0E0,1.4110287E2,0E0,0E0,6.240367E1,2.7463867E1,2.1659131E2,1.8127885E3,3.2792578E2,4.9238474E2,0E0,0E0,1.0383873E1,9.34375E0,2.7305847E1,2.899834E2,2.2143647E3,7.5272595E2,0E0,0E0,0E0,0E0,3.0728638E2,2.2613342E3,0E0,2.961914E0,2.800371E2,0E0,9.828651E1,0E0,1.0015967E2,3.8460266E2,0E0,8.845459E1,3.2733337E2,7.225258E2,0E0,8.2294116E2,4.123047E2,2.0159912E-1,0E0,1.4584282E2,0E0,0E0,7.41272E-2,6.3178424E2,4.8722046E1,0E0,0E0,1.9911113E3,2.264707E2,0E0,1.3653012E2,0E0,1.7643433E0,0E0,2.3818994E2,0E0,0E0,0E0,7.3827563E2,2.2502656E3,1.1247253E0,2.53125E0,1.02397656E3,7.4416504E0,1.26695435E2,0E0,1.5360771E3,0E0,0E0,0E0,0E0,0E0,0E0,0E0,0E0,7.764053E2,4.541797E1,0E0,7.0402246E2,6.972656E1,6.215625E1,2.1661821E3,0E0,0E0,0E0,6.674496E3,0E0,9.2554004E2,0E0,2.5868213E2,1.1173806E3,9.522355E2,0E0,0E0,7.603937E1,0E0,0E0,0E0,8.5507355E1,0E0,1.7969479E3,4.8707178E2,0E0,3.2593863E2,5.8237634E2,1.0978987E3,6.891396E2,8.165955E0,0E0,0E0,0E0,7.024215E2,2.0953613E1,4.8464603E2,7.831572E2,0E0,0E0,0E0,0E0,0E0,1.470166E1,5.173213E2,3.7474365E1,6.53839E2,0E0,1.3504688E3,2.8013574E2,1.9523154E2,5.27034E2,0E0,0E0,0E0,0E0,0E0,5.5096375E1,0E0,6.184248E2,0E0,0E0,0E0,0E0,1.1303083E3,2.7780624E2,8.173126E1,0E0,0E0,3.088501E0,0E0,1.2256521E3,0E0,0E0,7.217122E1,0E0,0E0,3.925923E2,0E0,7.109802E1,1.928409E2,0E0,0E0,0E0,2.6872607E2,6.118965E2,7.061465E2,2.5401758E2,0E0,0E0,0E0,7.876587E-1,0E0,0E0,0E0,0E0,2.0197943E2,2.503601E0,2.2963959E2,0E0,0E0,1.4654171E3,0E0,0E0,0E0,0E0,0E0,8.101537E2,1.6994397E2,0E0,2.888875E3,3.989453E1,0E0,0E0,0E0,1.2111328E1,9.2269727E2,0E0,1.6985453E3,1.0560378E3,5.482485E2,7.486195E2,5.172975E1,1.1358115E3,0E0,1.045906E3,0E0,0E0,4.9071777E1,0E0,0E0,0E0,0E0,0E0,4.9829102E-1,0E0,8.398695E1,8.820234E3,0E0,0E0,0E0,0E0,0E0,0E0,0E0,0E0,0E0,0E0,0E0,0E0,0E0,0E0,0E0,0E0,0E0,0E0,0E0,0E0,0E0,0E0,0E0,0E0,0E0,0E0,0E0,0E0,0E0,0E0,0E0,0E0,0E0,0E0,0E0,0E0,0E0,0E0,0E0,0E0,0E0,0E0,0E0,0E0,0E0,0E0,0E0,0E0,0E0,0E0,0E0,0E0,0E0,0E0,0E0,0E0,0E0,0E0,0E0,0E0,0E0,0E0,0E0,0E0,0E0,0E0,0E0,0E0,0E0,0E0,0E0,0E0,0E0,0E0,0E0,0E0,0E0,0E0,0E0,0E0,0E0,0E0,0E0,0E0,0E0,0E0,0E0,0E0,0E0,0E0,0E0,0E0,0E0,0E0,0E0,0E0,0E0,0E0,0E0,0E0,0E0,0E0,0E0,0E0,0E0,0E0,0E0,0E0,0E0,0E0,0E0,0E0,0E0,0E0,0E0,0E0,0E0,0E0,0E0,0E0,0E0,0E0,0E0,0E0],"parents":[2147483647,0,0,1,1,2,2,3,3,4,4,5,5,6,6,7,7,8,8,9,9,10,10,11,11,12,12,13,13,14,14,15,15,16,16,17,17,19,19,20,20,21,21,22,22,23,23,24,24,25,25,26,26,27,27,28,28,29,29,30,30,31,31,32,32,33,33,34,34,35,35,36,36,37,37,38,38,39,39,40,40,41,41,42,42,43,43,44,44,46,46,47,47,48,48,49,49,50,50,51,51,52,52,53,53,54,54,56,56,57,57,58,58,59,59,60,60,61,61,62,62,63,63,64,64,66,66,67,67,69,69,72,72,73,73,74,74,75,75,76,76,77,77,81,81,82,82,84,84,85,85,86,86,88,88,89,89,90,90,91,91,92,92,93,93,95,95,99,99,100,100,101,101,102,102,103,103,104,104,106,106,109,109,111,111,118,118,119,119,120,120,121,121,122,122,125,125,127,127,128,128,130,130,133,133,134,134,135,135,136,136,137,137,138,138,139,139,140,140,141,141,142,142,143,143,144,144,145,145,146,146,149,149,152,152,153,153,154,154,157,157,159,159,160,160,161,161,162,162,163,163,165,165,167,167,170,170,173,173,174,174,176,176,177,177,178,178,179,179,180,180,187,187,188,188,189,189,190,190,191,191,192,192,193,193,194,194,195,195,196,196,197,197,202,202,203,203,204,204,205,205,206,206,207,207,208,208,209,209,211,211,212,212,213,213,214,214,216,216,217,217,218,218,219,219,220,220,222,222,223,223,224,224,225,225,226,226,229,229,235,235,238,238,239,239,241,241,242,242,244,244,245,245,246,246,247,247,248,248,252,252,254,254,256,256,258,258,259,259,260,260,262,262,263,263,265,265,266,266,271,271,272,272,273,273,274,274,275,275,276,276,277,277,278,278,280,280,282,282,287,287,295,295,296,296,298,298,299,299,301,301,302,302,305,305,307,307,308,308,309,309,310,310,311,311,312,312,315,315,319,319,321,321,322,322,323,323,326,326,328,328,329,329,330,330,334,334,335,335,336,336,339,339,340,340,341,341,345,345,346,346,347,347,348,348,349,349,355,355,357,357,358,358,367,367,368,368,369,369,370,370,375,375,377,377,378,378,379,379,380,380,381,381,382,382,383,383,384,384,385,385,386,386,387,387,388,388,389,389,390,390,395,395,397,397,400,400,401,401,402,402,403,403,404,404,405,405,408,408,409,409,410,410,411,411,412,412,413,413,418,418,419,419,421,421,422,422,424,424,426,426,427,427,429,429,430,430,431,431,433,433,434,434,435,435,437,437,440,440,441,441,442,442,445,445,446,446,448,448,450,450,452,452,456,456,457,457,458,458,459,459,460,460,461,461,462,462,464,464,473,473,474,474,476,476,477,477,478,478,479,479,483,483,485,485,487,487,488,488,489,489,492,492,496,496,498,498,499,499,501,501,502,502,503,503,504,504,505,505,509,509,510,510,511,511,512,512,518,518,519,519,520,520,521,521,523,523,524,524,525,525,526,526,532,532,534,534,539,539,540,540,541,541,544,544,546,546,549,549,552,552,554,554,555,555,559,559,560,560,561,561,562,562,566,566,571,571,572,572,573,573,576,576,582,582,583,583,585,585,586,586,590,590,591,591,593,593,594,594,595,595,596,596,597,597,598,598,600,600,603,603,609,609,611,611,612,612],"right_children":[2,4,6,8,10,12,14,16,18,20,22,24,26,28,30,32,34,36,-1,38,40,42,44,46,48,50,52,54,56,58,60,62,64,66,68,70,72,74,76,78,80,82,84,86,88,-1,90,92,94,96,98,100,102,104,106,-1,108,110,112,114,116,118,120,122,124,-1,126,128,-1,130,-1,-1,132,134,136,138,140,142,-1,-1,-1,144,146,-1,148,150,152,-1,154,156,158,160,162,164,-1,166,-1,-1,-1,168,170,172,174,176,178,-1,180,-1,-1,182,-1,184,-1,-1,-1,-1,-1,-1,186,188,190,192,194,-1,-1,196,-1,198,200,-1,202,-1,-1,204,206,208,210,212,214,216,218,220,222,224,226,228,230,-1,-1,232,-1,-1,234,236,238,-1,-1,240,-1,242,244,246,248,250,-1,252,-1,254,-1,-1,256,-1,-1,258,260,-1,262,264,266,268,270,-1,-1,-1,-1,-1,-1,272,274,276,278,280,282,284,286,288,290,292,-1,-1,-1,-1,294,296,298,300,302,304,306,308,-1,310,312,314,316,-1,318,320,322,324,326,-1,328,330,332,334,336,-1,-1,338,-1,-1,-1,-1,-1,340,-1,-1,342,344,-1,346,348,-1,350,352,354,356,358,-1,-1,-1,360,-1,362,-1,364,-1,366,368,370,-1,372,374,-1,376,378,-1,-1,-1,-1,380,382,384,386,388,390,392,394,-1,396,-1,398,-1,-1,-1,-1,400,-1,-1,-1,-1,-1,-1,-1,402,404,-1,406,408,-1,410,412,-1,-1,414,-1,416,418,420,422,424,426,-1,-1,428,-1,-1,-1,430,-1,432,434,436,-1,-1,438,-1,440,442,444,-1,-1,-1,446,448,450,-1,-1,452,454,456,-1,-1,-1,458,460,462,464,466,-1,-1,-1,-1,-1,468,-1,470,472,-1,-1,-1,-1,-1,-1,-1,-1,474,476,478,480,-1,-1,-1,-1,482,-1,484,486,488,490,492,494,496,498,500,502,504,506,508,510,-1,-1,-1,-1,512,-1,514,-1,-1,516,518,520,522,524,526,-1,-1,528,530,532,534,536,538,-1,-1,-1,-1,540,542,-1,544,546,-1,548,-1,550,552,-1,554,556,558,-1,560,562,564,-1,566,-1,-1,568,570,572,-1,-1,574,576,-1,578,-1,580,-1,582,-1,-1,-1,584,586,588,590,592,594,596,-1,598,-1,-1,-1,-1,-1,-1,-1,-1,600,602,-1,604,606,608,610,-1,-1,-1,612,-1,614,-1,616,618,620,-1,-1,622,-1,-1,-1,624,-1,626,628,-1,630,632,634,636,638,-1,-1,-1,640,642,644,646,-1,-1,-1,-1,-1,648,650,652,654,-1,656,658,660,662,-1,-1,-1,-1,-1,664,-1,666,-1,-1,-1,-1,668,670,672,-1,-1,674,-1,676,-1,-1,678,-1,-1,680,-1,682,684,-1,-1,-1,686,688,690,692,-1,-1,-1,694,-1,-1,-1,-1,696,698,700,-1,-1,702,-1,-1,-1,-1,-1,704,706,-1,708,710,-1,-1,-1,712,714,-1,716,718,720,722,724,726,-1,728,-1,-1,730,-1,-1,-1,-1,-1,732,-1,734,736,-1,-1,-1,-1,-1,-1,-1,-1,-1,-1,-1,-1,-1,-1,-1,-1,-1,-1,-1,-1,-1,-1,-1,-1,-1,-1,-1,-1,-1,-1,-1,-1,-1,-1,-1,-1,-1,-1,-1,-1,-1,-1,-1,-1,-1,-1,-1,-1,-1,-1,-1,-1,-1,-1,-1,-1,-1,-1,-1,-1,-1,-1,-1,-1,-1,-1,-1,-1,-1,-1,-1,-1,-1,-1,-1,-1,-1,-1,-1,-1,-1,-1,-1,-1,-1,-1,-1,-1,-1,-1,-1,-1,-1,-1,-1,-1,-1,-1,-1,-1,-1,-1,-1,-1,-1,-1,-1,-1,-1,-1,-1,-1,-1,-1,-1,-1,-1,-1,-1,-1,-1,-1,-1,-1],"split_conditions":[1E0,6.473891E0,9.218011E0,6.455199E0,2.5881904E-1,7.7248883E0,1.1765364E1,5E-1,5E-1,6.123234E-17,7.0710677E-1,8.660254E-1,7.978311E0,1.1735813E1,8.660254E-1,6.1654177E0,6.349139E0,-1.8369701E-16,-8.391233E-1,9.27968E0,9.97292E0,9.691778E0,8.891374E0,3.8501475E0,1E0,1E0,8.098643E0,1.0763208E1,9.659258E-1,1.4087767E1,1E0,-9.659258E-1,6.4473057E0,5.3844953E0,6.4473057E0,-5E-1,6.123234E-17,9.04935E0,1.1125187E1,9.887663E0,3E0,9.526464E0,2E0,6.9584484E0,8.931419E0,-1.7017797E0,6.5323343E0,7.5548587E0,6.340359E0,8.660254E-1,7.784057E0,8.088255E0,8.4281435E0,9.9271555E0,8.660254E-1,-3.9551756E0,1E0,1.3307554E1,1.4271279E1,1.413939E1,1.4087767E1,5.556828E0,6.123234E-17,-5E-1,2.5881904E-1,-7.456539E-1,5.7137327E0,6.4118185E0,-9.0444505E-1,-9.659258E-1,-6.5960217E-1,1.0779285E0,2.5881904E-1,8.621373E0,9.123257E0,1.0372584E1,1.1175157E1,7.5548587E0,4.1673264E-1,-5.880694E-1,-7.69623E-1,7.0825486E0,9.563038E0,-8.5423416E-1,1.353782E1,6.8783264E0,7.031741E0,1.6323253E0,1.0107938E1,6.4831076E0,7.32185E0,7.355002E0,7.586296E0,5.556828E0,-1.2630296E0,7.8336E0,-1.7514333E0,-1.040108E0,-1.4576004E0,8.038189E0,7.0710677E-1,8.660254E-1,8.445482E0,8.660254E-1,9.97292E0,-3.1675322E0,1.1462011E1,-1.484605E-1,-1.0538956E0,1.3172513E1,-5.80836E0,5E-1,-3.1169462E0,-7.5862846E0,-5.305707E0,-4.7897496E0,-2.8735733E0,-7.2522736E-1,5.590987E0,5.389072E0,6.1420374E0,6.2785215E0,2.5881904E-1,-6.019503E-1,3.0668083E-1,5.6970935E0,-6.794255E-1,6.3902407E0,7.0710677E-1,-6.57606E-1,-8.660254E-1,-2.563282E-1,1.5517262E-2,8.555837E0,-9.659258E-1,-7.0710677E-1,-2.5881904E-1,1.0255059E1,1.0748583E1,-8.660254E-1,2E0,7.215975E0,8.875707E0,7.0621915E0,5E-1,5E-1,5E-1,-7.073264E-1,-8.5247386E-1,6.818924E0,1.0652379E0,-9.177881E-1,7.0621915E0,1.0012611E1,1.1974784E1,-1.323411E0,-1.6983137E0,7.2633295E0,-1.3378983E0,7.0621915E0,7.5016346E0,7.5657935E0,7.669962E0,3.8501475E0,-1.4392715E0,7.7735944E0,-1.6461776E0,9.659258E-1,-1.7335826E0,-1.2230377E0,8.660254E-1,-1.4414338E0,-1.7222598E0,8.660254E-1,8.700681E0,-2.8868935E0,1E0,9.659258E-1,1.0255059E1,1E0,1E0,-4.720534E0,-2.2527242E0,-8.332768E-1,-2.1903107E0,1.8317984E0,-7.2826874E-1,5.1817837E0,5.488938E0,5.749393E0,2.5881904E-1,6.212606E0,-7.0710677E-1,6.123234E-17,6.1717005E0,5.5174527E0,7.0710677E-1,7.0710677E-1,-6.7206E-1,9.237723E-1,-4.3178874E-1,3.9900404E-1,-7.0710677E-1,6.729824E0,-9.659258E-1,8.7194805E0,8.774931E0,-8.660254E-1,-1.8369701E-16,-8.660254E-1,-7.5915664E-1,-9.659258E-1,-8.660254E-1,1.0459755E1,1.0902059E1,2.8329998E-1,-2.5881904E-1,1.12849455E1,1.156694E1,6.612041E0,7.2327332E0,-5.326462E-1,8.891374E0,5E-1,5E-1,7.9624157E0,8.216088E0,8.471806E-2,-6.081356E-1,9.633645E0,-6.208347E-1,-6.5336394E-1,-8.717005E-1,-4.8889062E-1,-7.346784E-1,9.633645E0,1.2231264E0,-8.1709725E-1,1.2923076E1,7.2327332E0,-1.0764891E0,6.818924E0,7.161622E0,-1.7154282E0,7.521859E0,9.659258E-1,9.659258E-1,7.6093664E0,7.6993895E0,-1.7217497E0,-1.2314305E0,-1.4510787E0,7.784057E0,-1.7306875E0,1E0,2.4328502E-1,1E0,-1.4977071E0,1E0,8.642415E0,1E0,-4.5562015E0,9.887663E0,8.660254E-1,-3.3161793E0,8.660254E-1,1E0,-4.527234E0,-2.7874959E0,-7.8450704E0,-3.029833E0,5.1119876E0,-8.660254E-1,5.480639E0,-2.5881904E-1,5.1817837E0,5.7745514E0,6.154858E0,6.154858E0,-6.143627E-1,-7.0710677E-1,-6.578038E-1,6.340359E0,-6.440382E-1,-4.7539774E-1,-3.3693063E-1,-7.8804034E-1,5.488938E0,-7.0794654E-1,3.451782E0,-8.038142E-1,-5.533E-1,6.16319E-1,-6.3781464E-1,2.613055E-1,-5E-1,6.7787848E0,-7.5539094E-1,-1.8369701E-16,8.687442E0,-8.0770475E-1,-1.8369701E-16,-1.8369701E-16,-5.8857733E-1,-2.9177916E-1,-2.5881904E-1,-5.3311485E-1,9.218011E0,9.168267E0,9.790767E0,-5E-1,-9.659258E-1,-2.5881904E-1,-7.5121266E-1,-8.775052E-1,-2.5881904E-1,-8.553065E-1,-6.334039E-1,-3.636329E-1,-5E-1,-7.972174E-1,-7.0710677E-1,1.1974784E1,6.603944E0,-4.1629767E-1,1.2370379E0,7.527794E0,3.5115163E0,9.27968E0,6.6333184E0,7.0387836E0,-5.2513766E-1,8.901014E-1,-7.030212E-1,8.236686E0,8.088255E0,8.985696E0,-3.067266E-1,-6.040418E-1,9.123257E0,9.691778E0,1.2017071E1,-7.740851E-1,-1.2445908E0,-1.5579418E0,6.802395E0,6.993933E0,7.091742E0,7.2327332E0,9.659258E-1,-1.6522317E0,-1.9667023E0,-1.8581194E-1,4.4618938E-2,-7.057503E-2,9.659258E-1,-1.5378226E0,9.659258E-1,9.659258E-1,-8.887919E-1,-1.2682346E0,-2.8811765E-1,-1.4133716E0,-1.9445999E-1,-7.2540784E-1,-3.8194826E-1,-1.2995845E0,8.660254E-1,8.660254E-1,8.660254E-1,8.891374E0,-3.67644E0,-8.689523E-1,-2.0682735E0,-2.1494327E-1,1.0012611E1,-3.8948328E0,9.659258E-1,1.0473676E1,-5E-1,-5E-1,5.3375382E0,-5E-1,-8.660254E-1,-5E-1,-5E-1,-1.8369701E-16,4.94876E0,2.5881904E-1,2.5881904E-1,5.8493247E0,1.6621433E0,-4.843559E-1,-6.873736E-1,8.854371E-1,6.2709885E0,-5.6461465E-1,6.336826E0,-5.637302E-1,-5.947832E-1,7.0710677E-1,-9.659258E-1,6.58755E0,-8.660254E-1,8.414718E0,-2.5881904E-1,-6.9581103E-1,-6.976231E-1,8.700681E0,8.642415E0,8.683046E0,8.891374E0,8.79936E0,-5E-1,1.1303008E0,-5.908624E-1,-8.2151407E-1,-6.9681174E-1,-7.0710677E-1,9.691778E0,-7.142624E-1,1.0012611E1,9.823361E0,-6.21113E-1,1.03544035E1,-7.33755E-1,-1.8369701E-16,-8.660254E-1,-8.524839E-1,1.1243528E1,-2.5881904E-1,-8.660254E-1,-5.945464E-1,-5E-1,1.4087767E1,6.5778613E0,1.9233903E-1,7.259116E0,8.7030575E-2,-4.92752E-1,9.823361E0,6.612041E0,6.872128E0,-7.3088175E-1,-4.4600722E-1,8.216088E0,8.700681E0,-7.195082E-1,8.098643E0,-7.837562E-1,9.04935E0,-7.438333E-1,9.168267E0,-4.269074E-1,-7.9610413E-1,2.7766895E-1,1.2851761E1,6.690842E0,9.659258E-1,6.828712E0,7.005789E0,7.0825486E0,9.659258E-1,-1.6519433E0,7.259116E0,-6.888628E-2,-1.4768558E0,-2.53871E-1,-1.5615075E0,-1.4269679E0,9.9351905E-2,-5.1171184E-1,-2.0812738E0,7.0710677E-1,1E0,-1.6122895E0,1E0,7.0710677E-1,8.875707E0,8.875707E0,-1.6477423E0,-1.5045866E0,-2.9570768E0,1.03544035E1,-4.483335E0,1.0459755E1,-3.4247284E0,4.8675346E0,-2.5881904E-1,-8.660254E-1,-5.6640327E-1,-6.8510324E-1,5.3844953E0,-5.7313794E-1,-6.6784E-1,4.874031E-1,-1.8369701E-16,-5.699073E-1,-2.5881904E-1,5.8230457E0,-6.244456E-1,5.5174527E0,5.627621E0,3.988984E0,2.5881904E-1,5.627621E0,-6.927464E-1,5.985962E-1,2.002449E0,5.8406415E0,2.5881904E-1,-9.659258E-1,-9.659258E-1,-5.797632E-1,2.9670212E-3,-5.919965E-1,-1.8175648E-1,-7.6174784E-1,6.7141705E0,6.5778613E0,-2.5881904E-1,-9.659258E-1,-6.284462E-1,8.38206E0,-8.660254E-1,-8.660254E-1,8.613956E0,1.942215E-1,8.817427E-2,-6.2182075E-1,-7.237464E-1,-6.788689E-1,8.687442E0,-6.879694E-1,8.931419E0,1.4929326E0,-8.116766E-1,7.520525E-1,-6.24646E-1,9.191769E0,-5E-1,9.563038E0,1.847616E0,-7.870826E-1,-7.0710677E-1,-7.3137754E-1,9.856973E0,-3.1896925E-4,-5.464262E-1,1.03544035E1,-6.3257444E-1,-8.143371E-1,-7.0710677E-1,-8.1035846E-1,-9.659258E-1,1.1177257E1,-7.3494005E-1,-5.144292E-1,1.5552537E0,1.1661363E1,-1.8369701E-16,1.3789013E1,-9.659258E-1,-4.2492643E-1,-2.3296602E-1,8.814744E-2,7.4241652E0,-7.112186E-1,-3.6696154E-1,-7.1067953E-1,1.4135078E-1,6.818924E0,7.0387836E0,7.978311E0,1.3003616E0,-7.476995E-1,8.79936E0,-5.845226E-2,-6.0129666E-1,-3.9436725E-1,-6.7279553E-1,2.8575903E-1,9.526464E0,1.2242457E1,2.3625E-1,6.6631327E0,6.729824E0,-2.738265E-1,-3.3998314E-1,-1.8667365E0,6.9584484E0,9.659258E-1,-1.5166516E0,9.659258E-1,9.659258E-1,7.113956E0,7.113956E0,9.659258E-1,7.2820735E0,-1.3783184E0,8.555837E0,-1.8295321E0,-1.5116798E0,9.659258E-1,-1.45104E0,-1.630498E0,-1.3301892E0,-1.8938283E0,-1.6663076E0,8.7194805E0,1.4907694E-1,8.660254E-1,1.0748583E1,-1.7588058E0,4.0610966E-1,-6.216409E-1,-3.4235734E-1,2.1382533E-2,-4.5153955E-1,-9.84926E-2,1.0379759E0,-8.5095406E-2,-5.8464766E-1,-1.4925982E-1,-6.3020825E-1,3.4629667E0,-5.431752E-1,-2.4165472E-1,-5.079002E-1,-7.33087E-1,-1.4251999E-2,-1.2667777E-1,-6.9127566E-1,4.8369014E-1,-6.460656E-1,-4.8592263E-1,9.008622E-1,-5.25855E-1,-3.0938894E-1,-6.283462E-1,3.4725702E-1,-4.8981628E-1,-7.622909E-1,-7.134202E-1,1.1370131E-1,8.716916E-1,-5.6510335E-1,-6.3962203E-1,-4.9645483E-1,-6.0370183E-1,4.996442E-2,-4.7962052E-1,-6.3507473E-1,-1.3355559E-1,8.14823E-1,-4.5598182E-1,1.19743116E-1,-3.7248576E-1,-6.807463E-1,2.053696E-1,-2.0259611E-1,4.8157302E-1,-7.688211E-1,-1.682866E-1,-6.042419E-1,-1.11783125E-1,-6.9354194E-1,1.1610062E0,-7.159744E-1,-7.1608114E-1,-1.2621774E-1,-8.320671E-1,-3.3419088E-1,-7.425345E-1,-5.823728E-1,5.9553134E-1,-6.077631E-1,-5.889971E-1,-6.805503E-2,1.5936881E-1,-4.4900668E-1,-1.6106677E-1,-6.447941E-1,-8.684178E-1,-7.128873E-2,-2.8283447E-1,-6.3924533E-1,-8.1750326E-2,-7.453955E-1,-5.213534E-1,-1.274722E-1,-3.726054E-1,-7.5833786E-1,-3.8630673E-1,-2.893616E-1,-6.539725E-1,-1.3912325E-1,-7.6908225E-1,-4.500715E-1,-1.6941984E-1,-7.4689645E-1,4.9555263E-1,-7.8234905E-1,-8.077914E-1,1.8907449E-1,-2.8848213E-1,-7.1471304E-1,-9.986575E-1,-5.9473976E-2,-1.3599654E0,-1.6346056E0,-1.4159914E0,-1.6887428E0,-3.1786972E-1,-1.8811404E0,-2.4546967E-1,-2.000692E0,-1.5758182E0,-2.2291656E-1,-1.2135843E0,-9.8861136E-2,2.9634567E-2,-7.5746375E-1,-2.9173592E-1,-7.758345E-2,-1.4612266E0,-7.1521497E-1,-1.5619899E0,-3.8494214E-1,-7.270871E-1,-5.7434124E-1,-9.198305E-1,-1.6461521E0,-9.958728E-1,-2.6689997E-1,-3.5705411E0,-7.333653E-1],"split_indices":[4,5,5,5,3,5,5,3,3,3,3,3,5,5,3,5,5,3,0,5,5,5,5,5,3,3,5,5,3,5,3,3,5,5,5,3,3,5,5,5,6,5,6,5,5,0,5,5,5,3,5,5,5,5,3,0,3,5,5,5,5,5,3,3,3,0,5,5,0,3,0,0,3,5,5,5,5,5,0,0,0,5,5,0,5,5,5,0,5,5,5,5,5,5,0,5,0,0,0,5,3,3,5,3,5,0,5,0,0,5,0,3,0,0,0,0,0,0,5,5,5,5,3,0,0,5,0,5,3,0,3,0,0,5,3,3,3,5,5,3,6,5,5,5,3,3,3,0,0,5,0,0,5,5,5,0,0,5,0,5,5,5,5,5,0,5,0,3,0,0,3,0,0,3,5,0,3,3,5,3,3,0,0,0,0,0,0,5,5,5,3,5,3,3,5,5,3,3,0,0,0,0,3,5,3,5,5,3,3,3,0,3,3,5,5,0,3,5,5,5,5,0,5,3,3,5,5,0,0,5,0,0,0,0,0,5,0,0,5,5,0,5,5,0,5,3,3,5,5,0,0,0,5,0,3,0,3,0,3,5,3,0,5,3,0,3,3,0,0,0,0,5,3,5,3,5,5,5,5,0,3,0,5,0,0,0,0,5,0,0,0,0,0,0,0,3,5,0,3,5,0,3,3,0,0,3,0,5,5,5,3,3,3,0,0,3,0,0,0,3,0,3,5,5,0,0,5,0,5,5,5,0,0,0,5,5,5,0,0,5,5,5,0,0,0,5,5,5,5,3,0,0,0,0,0,3,0,3,3,0,0,0,0,0,0,0,0,3,3,3,5,0,0,0,0,5,0,3,5,3,3,5,3,3,3,3,3,5,3,3,5,0,0,0,0,5,0,5,0,0,3,3,5,3,5,3,0,0,5,5,5,5,5,3,0,0,0,0,3,5,0,5,5,0,5,0,3,3,0,5,3,3,0,3,5,5,0,5,0,0,5,5,5,0,0,5,5,0,5,0,5,0,5,0,0,0,5,5,3,5,5,5,3,0,5,0,0,0,0,0,0,0,0,3,3,0,3,3,5,5,0,0,0,5,0,5,0,5,3,3,0,0,5,0,0,0,3,0,3,5,0,5,5,5,3,5,0,0,0,5,3,3,3,0,0,0,0,0,5,5,3,3,0,5,3,3,5,0,0,0,0,0,5,0,5,0,0,0,0,5,3,5,0,0,3,0,5,0,0,5,0,0,3,0,3,5,0,0,0,5,3,5,3,0,0,0,5,0,0,0,0,5,5,5,0,0,5,0,0,0,0,0,5,5,0,5,5,0,0,0,5,3,0,3,3,5,5,3,5,0,5,0,0,3,0,0,0,0,0,5,0,3,5,0,0,0,0,0,0,0,0,0,0,0,0,0,0,0,0,0,0,0,0,0,0,0,0,0,0,0,0,0,0,0,0,0,0,0,0,0,0,0,0,0,0,0,0,0,0,0,0,0,0,0,0,0,0,0,0,0,0,0,0,0,0,0,0,0,0,0,0,0,0,0,0,0,0,0,0,0,0,0,0,0,0,0,0,0,0,0,0,0,0,0,0,0,0,0,0,0,0,0,0,0,0,0,0,0,0,0,0,0,0,0,0,0,0,0,0,0,0,0,0,0,0,0,0],"split_type":[0,0,0,0,0,0,0,0,0,0,0,0,0,0,0,0,0,0,0,0,0,0,0,0,0,0,0,0,0,0,0,0,0,0,0,0,0,0,0,0,0,0,0,0,0,0,0,0,0,0,0,0,0,0,0,0,0,0,0,0,0,0,0,0,0,0,0,0,0,0,0,0,0,0,0,0,0,0,0,0,0,0,0,0,0,0,0,0,0,0,0,0,0,0,0,0,0,0,0,0,0,0,0,0,0,0,0,0,0,0,0,0,0,0,0,0,0,0,0,0,0,0,0,0,0,0,0,0,0,0,0,0,0,0,0,0,0,0,0,0,0,0,0,0,0,0,0,0,0,0,0,0,0,0,0,0,0,0,0,0,0,0,0,0,0,0,0,0,0,0,0,0,0,0,0,0,0,0,0,0,0,0,0,0,0,0,0,0,0,0,0,0,0,0,0,0,0,0,0,0,0,0,0,0,0,0,0,0,0,0,0,0,0,0,0,0,0,0,0,0,0,0,0,0,0,0,0,0,0,0,0,0,0,0,0,0,0,0,0,0,0,0,0,0,0,0,0,0,0,0,0,0,0,0,0,0,0,0,0,0,0,0,0,0,0,0,0,0,0,0,0,0,0,0,0,0,0,0,0,0,0,0,0,0,0,0,0,0,0,0,0,0,0,0,0,0,0,0,0,0,0,0,0,0,0,0,0,0,0,0,0,0,0,0,0,0,0,0,0,0,0,0,0,0,0,0,0,0,0,0,0,0,0,0,0,0,0,0,0,0,0,0,0,0,0,0,0,0,0,0,0,0,0,0,0,0,0,0,0,0,0,0,0,0,0,0,0,0,0,0,0,0,0,0,0,0,0,0,0,0,0,0,0,0,0,0,0,0,0,0,0,0,0,0,0,0,0,0,0,0,0,0,0,0,0,0,0,0,0,0,0,0,0,0,0,0,0,0,0,0,0,0,0,0,0,0,0,0,0,0,0,0,0,0,0,0,0,0,0,0,0,0,0,0,0,0,0,0,0,0,0,0,0,0,0,0,0,0,0,0,0,0,0,0,0,0,0,0,0,0,0,0,0,0,0,0,0,0,0,0,0,0,0,0,0,0,0,0,0,0,0,0,0,0,0,0,0,0,0,0,0,0,0,0,0,0,0,0,0,0,0,0,0,0,0,0,0,0,0,0,0,0,0,0,0,0,0,0,0,0,0,0,0,0,0,0,0,0,0,0,0,0,0,0,0,0,0,0,0,0,0,0,0,0,0,0,0,0,0,0,0,0,0,0,0,0,0,0,0,0,0,0,0,0,0,0,0,0,0,0,0,0,0,0,0,0,0,0,0,0,0,0,0,0,0,0,0,0,0,0,0,0,0,0,0,0,0,0,0,0,0,0,0,0,0,0,0,0,0,0,0,0,0,0,0,0,0,0,0,0,0,0,0,0,0,0,0,0,0,0,0,0,0,0,0,0,0,0,0,0,0,0,0,0,0,0,0,0,0,0,0,0,0,0,0,0,0,0,0,0,0,0,0,0,0,0,0,0,0,0,0,0,0,0,0,0,0,0,0,0,0,0,0,0,0,0,0,0,0,0,0,0,0,0,0,0,0,0,0,0,0,0,0,0,0,0,0,0,0,0,0,0,0,0,0,0,0,0,0,0,0,0,0,0,0,0,0],"sum_hessian":[3.4781605E4,2.1718414E4,1.3063191E4,5.2868276E3,1.6431588E4,1.1832402E4,1.2307891E3,5.1147744E3,1.7205298E2,1.2832219E4,3.5993684E3,8.624761E3,3.207642E3,8.8823224E2,3.4255682E2,4.4152534E3,6.9952106E2,1.6388768E2,8.165301E0,1.2104261E4,7.27958E2,2.318108E3,1.2812605E3,2.5226582E3,6.102102E3,6.237903E2,2.5838518E3,8.3795294E2,5.027928E1,1.230573E2,2.1949954E2,3.4337285E3,9.81525E2,6.0798846E2,9.153258E1,1.1307805E2,5.0809635E1,7.7301953E3,4.374066E3,5.789687E2,1.4898935E2,1.6023827E3,7.157252E2,6.442444E2,6.370161E2,2.3901024E1,2.4987573E3,5.267544E3,8.3455835E2,5.479564E2,7.583385E1,3.4366968E2,2.2401821E3,5.942804E2,2.4367258E2,5.0179086E0,4.526137E1,9.615368E1,2.6903622E1,1.8114117E2,3.835836E1,2.4041739E2,3.193311E3,8.8273895E2,9.878604E1,2.1487096E2,3.9311752E2,8.256293E1,8.969645E0,9.74464E1,1.5631641E1,2.2003077E1,2.8806559E1,7.3514985E3,3.7869678E2,1.5668871E3,2.8071787E3,5.009513E2,7.8017365E1,1.3654662E2,1.2442725E1,1.5364374E3,6.59453E1,3.2612918E2,3.8959604E2,1.23578514E2,5.2066583E2,1.1171385E1,6.258447E2,1.2556633E3,1.243094E3,4.761046E3,5.0649817E2,3.471205E2,4.8743784E2,2.0248604E2,3.454704E2,3.277196E1,4.306189E1,1.7488872E2,1.6878096E2,6.281974E2,1.6119849E3,2.0847801E2,3.8580234E2,8.421899E1,1.5945358E2,4.417636E1,1.0850102E0,6.9006134E1,2.7147543E1,1.5428639E1,1.1474982E1,1.513066E2,2.9834587E1,3.2150253E1,6.2081084E0,1.3426135E2,1.06156044E2,2.6971204E3,4.9619083E2,4.641554E2,4.185836E2,5.552223E1,4.3263813E1,1.3094444E2,2.6217307E2,5.694356E1,2.561937E1,5.0379763E0,9.240843E1,3.3573673E0,2.5449192E1,6.325E3,1.0264983E3,1.3241908E2,2.462777E2,1.0033893E3,5.6349786E2,1.1140602E2,2.6957727E3,2.6967178E2,2.3127953E2,3.8065204E2,1.1557853E3,3.950522E1,2.6440079E1,2.931277E2,9.6468346E1,1.06538925E2,1.703959E1,1.8960938E1,5.0170493E2,2.0262018E2,4.2322458E2,1.2337426E3,2.1920765E1,8.0573267E2,4.373613E2,4.3483794E3,4.126662E2,1.956989E2,3.1079926E2,1.7384924E2,1.7327129E2,1.3478067E2,6.770537E1,9.535623E1,7.953248E1,8.614664E0,1.6016629E2,1.941985E2,4.339989E2,1.21022545E2,1.4909623E3,7.532743E1,1.3315059E2,6.2238567E1,3.2356378E2,1.393824E2,2.007118E1,6.436994E1,4.6361933E0,8.300685E0,7.127955E0,1.066832E1,9.5487724E1,1.205937E3,1.4911832E3,4.5370663E2,4.24842E1,2.2188731E2,2.4226808E2,3.4942505E2,6.915854E1,1.23752E2,7.192444E0,3.2047424E1,2.4896137E1,2.154977E1,4.0696E0,3.942185E1,5.2986584E1,6.0588887E3,2.6611148E2,1.7407848E2,8.5241986E2,3.4398674E1,9.802041E1,1.9360922E2,5.2668476E1,8.371604E2,1.662289E2,2.599062E2,3.0359167E2,9.0095276E1,2.1310745E1,3.839227E2,2.3118499E3,1.4667531E2,1.2299646E2,1.8275378E2,4.8525745E1,3.5200787E2,2.8644156E1,5.9156537E2,5.6422E2,3.5746822E1,3.7583966E0,1.6570805E1,9.869273E0,9.409928E1,1.2439641E1,9.361993E0,4.9234293E2,1.864127E2,1.620747E1,1.6506999E2,2.5815457E2,7.156898E2,9.004285E1,3.4620303E3,8.863492E2,3.08934E2,1.03732216E2,5.922441E1,1.3647449E2,1.4329333E2,1.6750594E2,7.8496194E0,1.6599962E2,6.7191986E1,6.7588684E1,3.7925133E1,5.7431103E1,4.3319725E1,1.1684657E2,1.6830166E1,1.04192375E2,8.342961E2,6.566662E2,1.1115145E2,2.1999138E1,5.3848804E1,8.389762E0,8.501944E1,2.3854434E2,1.1580161E2,2.3580786E1,1.5752676E1,4.318505E0,9.408799E2,2.6505713E2,1.6617915E2,1.325004E3,2.972242E2,1.5648242E2,1.7127703E1,2.5356497E1,5.6145584E1,1.6574173E2,1.5820036E2,8.406771E1,3.0798395E2,4.1441074E1,3.3126137E0,6.5845924E1,6.959679E1,5.415521E1,5.947473E0,1.2449707E0,7.863434E0,2.418399E1,7.085525E0,4.590106E1,6.73192E2,5.385697E3,1.8804228E1,2.4730727E2,1.26150406E2,4.792807E1,4.4984213E2,4.025777E2,1.8780916E1,1.5617757E1,9.17806E1,6.2398E0,5.6471138E1,1.3713808E2,9.707818E1,7.400822E2,6.595628E1,1.00272606E2,9.874425E1,1.6116193E2,1.9597935E2,1.07612305E2,1.2624935E1,8.68581E0,1.8657573E2,1.9734698E2,2.6007957E1,2.285842E3,5.4077763E1,9.259755E1,1.7135748E1,1.0586071E2,5.860373E0,4.266537E1,2.0539711E2,1.4661076E2,9.524695E0,1.911946E1,2.7054535E2,3.2102002E2,3.3492966E2,2.2929028E2,1.2761591E1,3.8092139E0,1.3946667E2,4.6946037E1,1.7830965E2,7.9844925E1,6.860134E2,2.9676384E1,3.1520107E3,3.1001968E2,4.0493155E2,4.8141763E2,4.9924553E1,5.3807663E1,1.7622139E1,4.1602272E1,8.1964035E1,5.4510452E1,5.035377E1,9.293956E1,1.0666495E2,6.0840984E1,1.824216E1,4.9346523E1,4.774928E1,9.681823E0,1.09598175E2,7.248395E0,9.883387E1,5.358505E0,4.7368854E2,3.606075E2,5.519479E2,1.04718315E2,1.9674274E1,2.3248644E0,5.7479434E0,4.810086E1,2.8576508E1,5.6442936E1,1.9131087E2,4.723348E1,8.5040326E2,9.047662E1,6.472401E1,2.0033313E2,1.5036491E2,1.58142395E1,8.4951935E2,4.754847E2,1.6437077E2,1.3285345E2,4.1191055E1,1.1529137E2,1.2236856E1,4.890847E0,4.9884677E0,2.0368029E1,1.3228613E2,3.3455605E1,4.1193005E1,4.2874702E1,2.5501215E1,4.4095573E1,3.6921124E2,3.0398077E2,1.3285666E2,5.25284E3,2.2723024E2,2.0077028E1,3.6786552E1,8.936385E1,3.9300806E2,5.683408E1,3.562246E2,4.635308E1,7.602291E1,1.5757694E1,4.288959E1,1.3581549E1,2.3022928E1,1.1411515E2,4.366471E1,5.3413467E1,3.7513974E2,3.6494247E2,1.6418682E1,4.95376E1,4.923834E1,5.1034267E1,1.5380159E2,4.217777E1,8.787873E1,9.869699E1,1.8069483E1,7.9384737E0,5.3664764E2,1.7491943E3,1.5189595E1,3.888817E1,8.1774956E1,2.408576E1,2.1171944E1,2.149343E1,8.070038E1,1.2469673E2,1.3951889E2,7.091877E0,8.631125E1,2.3470879E2,2.9163538E2,4.329429E1,1.810523E2,4.8237976E1,1.600944E1,1.2345723E2,5.271488E0,4.167455E1,4.3613724E1,1.346959E2,3.0447979E3,1.0721272E2,1.7182729E2,1.3819241E2,1.4828731E2,2.5664423E2,9.3539375E1,3.8787823E2,3.5344383E1,1.458017E1,3.0576921E1,1.977685E1,1.0086418E1,9.657853E1,4.6512344E1,1.4328641E1,1.7934074E2,2.943478E2,7.120713E1,2.894004E2,1.8624034E2,3.6570755E2,7.2739365E1,3.1978947E1,5.5844073E0,2.2992102E1,1.5313103E2,3.8179836E1,3.9627613E1,7.6058636E0,3.964518E2,4.5395148E2,6.5494576E1,2.4982046E1,2.4245588E1,4.0478424E1,8.542943E1,1.149037E2,4.270882E1,1.0765609E2,6.2174454E0,9.596794E0,6.650918E2,1.8442758E2,3.106434E2,1.648413E2,1.1526675E2,4.910402E1,4.8302536E1,8.455092E1,3.1439077E1,9.751977E0,6.682333E1,4.8468033E1,9.828796E1,3.3998173E1,1.2974379E1,2.8218628E1,1.0938924E1,3.315665E1,6.429448E1,3.0491675E2,1.0834276E2,1.9563802E2,6.9391335E1,6.3465324E1,4.9039707E3,3.4886942E2,1.4933362E2,7.789663E1,4.8496517E1,4.0867336E1,8.576471E1,3.0724335E2,2.853499E1,2.829909E1,1.9172449E2,1.6450014E2,1.1751529E1,3.460155E1,6.6494965E1,9.527943E0,2.70115E1,8.710365E1,3.3162407E1,1.0502304E1,2.8852655E2,8.661318E1,1.8976791E2,1.7517456E2,4.1509407E1,8.028195E0,3.440078E1,1.6633486E1,3.9754932E1,1.1404666E2,5.795968E1,2.9919054E1,6.060967E1,3.8087326E1,4.5849576E0,1.3484526E1,2.3529977E2,3.0134787E2,1.4669181E3,2.8227618E2,1.035777E1,4.8318253E0,2.3393307E1,5.8381645E1,1.7935003E1,3.558426E0,3.1058151E1,4.9642227E1,8.472255E1,3.9974182E1,7.153451E1,1.4776742E1,1.3388145E2,1.0082733E2,1.7411087E1,2.5883202E1,5.7288E0,4.2509174E1,4.3083416E1,8.037381E1,8.779766E1,4.689826E1,2.8694353E3,1.7536256E2,5.808447E1,4.9128258E1,2.8105528E1,1.4372176E2,5.1037586E1,8.715482E1,7.201292E1,7.627438E1,1.4836383E2,1.082804E2,1.0546078E2,2.8241748E2,9.6959335E1,8.23814E1,2.4552934E2,4.881846E1,2.6157523E2,2.7825184E1,1.198853E2,6.635504E1,1.3819875E2,2.275088E2,2.4805803E1,4.7933563E1,4.952327E1,1.0360776E2,4.063593E0,3.5564022E1,2.9003854E2,1.0641326E2,2.0245459E2,2.5149687E2,3.0406082E1,3.5088493E1,3.2634624E1,7.843798E0,9.940011E1,8.255978E0,6.0524273E0,3.5443668E0,4.1634317E2,2.4874861E2,1.3907971E1,2.9673544E2,7.9517105E1,8.532419E1,2.3680206E1,9.158655E1,9.3705225E0,3.9733498E1,3.7816288E1,1.0486248E1,2.6994175E1,3.9829155E1,1.9542305E1,2.892573E1,1.8886309E1,7.940165E1,2.0871504E1,1.3126669E1,2.6562286E2,3.9293873E1,5.7992813E1,5.0349945E1,8.331245E1,1.1232556E2,2.526213E1,4.4129204E1,4.8108975E3,9.307289E1,9.575991E1,2.5310951E2,3.319164E1,1.16141975E2,7.031155E1,7.5850782E0,1.2237954E1,1.6061134E1,8.062037E1,8.387977E1,1.4137643E1,1.2873857E1,2.4537146E1,6.2566505E1,1.5472021E1,1.7690386E1,5.3478027E1,3.3135155E1,2.0899258E1,1.5427531E2,6.75913E0,2.7641651E1,3.3065002E1,8.098166E1,1.2065113E1,1.7853941E1,6.862952E0,5.3746716E1,7.020307E1,1.650967E2,2.6688406E2,3.4463814E1,1.35532E3,1.115982E2,4.964168E1,2.326345E2,3.366174E1,2.4719906E1,5.9975266E1,2.4747284E1,3.412854E1,5.8456426E0,2.3756401E1,4.7778103E1,2.6852642E1,7.397469E1,2.6637606E1,5.3736206E1,4.6308327E1,4.148933E1,2.793615E3,7.582027E1,7.123822E1,1.04124344E2,8.491068E1,5.8811073E1,4.1127678E1,9.909906E0,5.70267E1,1.4986221E1,1.5681278E1,6.0593105E1,9.7167425E0,1.3864708E2,5.032028E1,5.796013E1,6.0759117E1,4.4701664E1,5.891221E1,2.2350526E2,2.3463238E1,5.8918163E1,1.3705362E2,1.245216E2,4.584582E0,2.0221222E1,3.0816977E0,4.644157E1,6.2120155E1,4.14876E1],"tree_param":{"num_deleted":"0","num_feature":"9","num_nodes":"737","size_leaf_vector":"1"}},{"base_weights":[-5.3271422E0,-4.243277E0,-1.6943588E2,-1.659521E0,-6.648154E0,-1.3490553E2,-4.6239984E2,-2.531411E0,-6.8579406E-2,-1.040975E1,-2.9490545E0,-1.6144589E2,-2.062447E1,-1.2781976E2,-9.481205E2,-8.3610016E-1,-1.0521694E1,5.1200825E-1,-9.388062E-1,3.7302967E-2,-1.7387144E1,-1.6595167E-1,-5.6105337E0,-2.7328375E2,-1.1120428E2,-1.2610641E1,-1.8109003E1,-1.3451828E1,-3.2550632E1,-1.7794391E2,-1.2009947E1,-1.7203524E0,1.1416281E0,-1.663797E1,-4.427018E0,8.0972064E-1,-6.224768E-1,1.7328544E0,-1.0171096E0,1.0959219E0,-1.4557441E0,-4.2572775E0,-5.702216E1,-1.2099764E0,1.1458423E0,-5.0744543E0,-4.3485817E1,-7.8643364E1,-5.3608496E2,-9.2848175E1,-2.3045987E2,-4.485809E1,-8.960095E0,-1.4978023E-1,-2.980501E0,2.4766974E0,6.5270185E-1,-3.886208E1,-4.580542E0,-4.976344E0,-2.7912645E0,1.042537E0,-3.1125504E-1,-1.1540825E0,4.912747E-1,-1.7108423E-1,5.2860713E0,-9.7112966E-1,-3.6200972E0,7.864114E-2,2.0309489E0,-1.2876259E0,-3.2089582E-1,-3.3512385E0,-2.7811237E1,-5.1257133E1,-8.7303253E2,9.6774024E-1,-3.6275153E0,4.8541972E-1,2.8496592E0,-1.5589776E0,-7.2424955E0,-8.881854E1,-8.376917E0,-4.537347E0,-1.2971544E1,-5.938382E1,-1.2415973E2,-1.6079356E2,-6.311594E1,-8.233895E0,-1.8899691E0,-6.4913874E0,-1.9639706E1,2.1706522E0,-3.1614867E-1,-5.3339987E0,-1.3481897E0,4.1593117E-1,5.7064886E0,-3.9362484E-1,2.193663E0,-8.546172E0,-1.6632225E1,-7.2802234E0,-5.4770696E-1,-5.392047E0,-3.2046607E0,-1.2941375E0,-4.807722E0,4.2733836E0,7.6964504E-1,-4.9382704E-1,3.9833257E-1,-8.34178E-1,-3.1064315E0,4.7154717E0,-1.91555E-1,8.121366E0,-1.5324216E-1,-1.1818349E0,-7.042244E-1,-1.8624866E0,-3.3041923E0,-1.5537317E0,5.825233E-1,5.1028233E0,1.6284878E0,-1.1864823E0,-1.4080133E0,-1.9404513E0,-5.2654986E0,-1.6320934E0,-2.372477E2,-1.1221545E2,-3.6372383E0,-3.8332E1,-1.8178659E2,-1.1625675E-1,1.7221643E0,-5.5564604E0,-5.164957E-1,1.2205172E0,-6.5904098E0,-1.7418118E0,3.1713097E0,-1.2240759E0,-3.323576E0,-1.8384478E1,-1.8300964E0,-2.1879768E1,-3.3385303E0,-6.568211E1,-5.6854496E0,-9.743344E1,-2.4901273E2,-1.1647331E1,-2.051054E2,-1.426543E0,-2.028941E0,-1.3499991E0,-4.216239E0,4.35043E0,-1.4929092E-1,-9.624207E-1,1.0836885E-1,-3.8473165E0,-3.5964725E1,-1.0701258E0,-2.5036407E0,1.8471677E0,-7.4381745E-1,8.933709E0,6.1665744E-1,-1.2626709E-1,-8.29968E0,2.8758903E0,3.1772515E-1,-7.435601E0,-2.1239164E0,-1.6208936E0,-6.8196697E0,5.089785E-1,-1.8859999E-1,-4.75498E0,-6.413954E0,-5.8588374E-1,-4.8516936E0,-7.052521E-1,-3.398336E-1,-9.8624535E-2,-7.3338115E-1,9.1117615E-1,7.9156055E0,3.0987284E-1,1.5963011E0,-1.6909455E-1,-1.3847568E0,-1.4284354E-1,9.6177466E-2,1.7119274E-1,-1.1992824E0,-2.5358145E0,-2.7832298E0,5.1262846E0,-1.1386824E-1,-1.1658214E0,5.789489E-1,1.3580099E0,-1.3040873E-1,-1.3556738E0,-1.5477486E-1,8.470272E0,-8.9489114E-1,-1.43587E-1,-2.3049526E0,-1.5420131E-1,-2.120136E0,1.5541264E0,-7.779274E-2,3.6064308E0,1.1064202E1,1.8144126E0,7.179637E-2,-1.559352E-1,-1.2129475E0,-2.710321E-1,-1.2685689E0,-6.4277613E-1,-2.5514634E0,-1.798847E1,-2.217788E0,-2.2092757E0,-1.5363216E-1,-6.404049E1,-3.5339053E3,-4.075915E1,-1.5186191E0,2.8451368E-1,-1.4972001E-1,2.5904546E0,-5.601965E-1,3.1089652E-1,-8.481002E0,-8.532819E-1,1.8355335E0,7.502453E-1,3.736952E0,-2.167051E-1,-3.0258228E1,-1.942145E-1,-7.0978814E-1,2.7131631E0,8.476321E0,-3.1069154E-1,-7.959506E-1,-1.6671044E-1,-8.871732E0,-2.5467249E1,-2.6806736E0,-1.4398358E0,-7.031258E0,-8.429804E0,-1.0710357E1,-4.3430123E-1,-7.168589E-1,-6.828681E1,-2.609187E0,-1.2745946E2,-6.1175537E1,-4.3986683E1,-1.2514552E1,-3.842365E1,-7.8146687E0,2.583712E-2,-1.9949754E0,-1.4876814E-1,1.0947822E1,4.8808213E-2,-1.5242193E0,1.363802E0,-9.996679E-1,-3.2411063E0,-5.6289425E0,-3.666491E1,-7.950004E-2,6.409813E-1,-1.1860276E0,-5.772606E-1,-7.609438E0,-1.5094271E-1,4.4659247E0,6.63811E-1,-1.5476764E0,2.4963074E0,1.178665E1,-1.5703979E-1,2.4112365E0,4.268742E-1,-9.407953E-1,-1.1115208E1,-3.9835312E0,1.3641719E0,4.1827297E0,1.0171494E0,-1.5685571E0,-9.3547945E0,-6.492772E0,-4.4653363E0,-7.88012E0,1.2475616E0,-1.7997237E-1,-3.5756876E0,-6.468172E0,-5.0596275E0,-1.0932221E0,-9.047664E-1,1.6304167E-2,-3.4996033E0,-1.0465143E0,-8.4408927E-1,4.9910372E-1,2.8942208E0,-1.7930223E-1,2.046351E1,6.3521285E0,6.111995E-1,-1.1797327E0,8.071537E0,1.0061705E0,1.8449399E-1,-6.102404E-1,-1.4770445E-1,-2.2954859E-1,1.8096752E0,-1.2928175E0,-1.1175946E0,-2.186424E-1,-1.7118788E-1,-3.60009E0,-9.8303124E-2,5.5536904E0,-1.1106774E0,-3.9105257E-1,1.2912343E0,-1.7714481E-1,-1.579951E-1,-2.6696554E-1,1.6931324E1,-1.5509208E-1,-2.781349E-1,-1.2980378E0,-6.2834704E-1,-1.6815232E-1,-1.3279416E-1,-3.315297E-1,9.8676085E-1,1.7590872E1,-1.7489804E-1,6.995127E-2,1.3106788E0,2.5913584E0,1.4334651E0,4.4100437E0,-1.8610345E-1,-1.5498285E-1,-1.5976861E-1,-1.3761054E0,-1.2003133E0,1.8930389E0,-4.595948E0,-9.8044056E-1,-4.7822685E1,-4.383566E0,-1.9702704E0,-2.7303026E1,-1.4414637E-1,-3.6708596E-1,-3.8943764E1,-9.048883E2,-1.3060945E3,-8.713986E1,-4.9537033E1,-2.729453E0,-4.944173E0,-6.527582E-1,-2.0552379E-1,9.585803E0,1.21813E0,5.626978E0,1.0330357E1,-1.5012803E0,1.7941273E0,-1.3646984E-1,-7.3211594E0,-2.237808E1,-5.4168475E-1,-3.0972443E0,-2.6092416E-1,2.4311717E0,3.751352E0,6.3399E-1,1.088353E1,2.336945E0,3.4993603E0,1.260821E0,-1.612812E-1,1.4267668E0,-2.4622107E-1,-1.7754726E0,-5.9749447E1,-3.7086725E0,-4.6556063E0,-2.6562412E1,-2.0957943E1,-8.7382066E-1,-1.3372418E0,-3.497656E0,-2.0535429E1,-1.876255E0,-7.883598E-1,-2.3765693E0,-1.1589228E1,-6.61315E0,-2.0607393E1,-3.8419085E0,-1.2452634E1,-3.81174E0,8.230422E0,2.4000278E1,-1.5028904E-1,1.4474154E0,-6.7057556E-1,-1.670811E0,9.698195E-1,6.3109136E0,-1.6252149E0,7.2025734E-1,-1.1795988E0,-4.0276074E0,-1.4362266E1,-4.1069503E0,-6.530206E0,-3.1705168E1,-1.7063954E-1,1.8564032E0,-1.2986861E0,-7.342785E-1,3.7504432E-1,-1.7858233E-1,-1.6790997E0,-1.9066087E0,1.5184501E1,3.0471575E0,-1.6073743E-1,2.8743097E-1,-4.620668E-1,-2.5997005E0,-1.5094262E-1,7.6629796E0,1.0791412E1,2.5519028E1,5.968457E-1,-1.4634198E-1,-7.975915E-2,8.67427E0,-2.840881E0,-6.8279237E-1,-1.928719E1,-3.520065E-1,-1.9710493E0,-1.1297145E0,1.5990145E0,-1.9650638E-1,6.6325803E0,1.9972548E0,-2.2419086E-1,1.3080221E0,-7.768033E-1,-2.198345E0,-4.884222E0,-7.167287E0,-5.3212647E0,-1.0361036E0,-6.5800653E0,-1.6586951E0,-1.7461616E-1,2.4902351E-1,-3.117372E-1,-4.376006E0,-5.8735676E0,-1.0537747E0,-9.723339E-1,-5.9837204E-1,-2.2908735E0,-1.0209378E0,-3.0143455E-1,-6.915781E-1,-5.49625E-1,1.5182328E-1,5.955751E0,-1.5133381E-1,4.387779E0,-1.0738202E-1,4.808939E0,1.3346938E1,1.236757E-1,1.8288153E0,-1.5717366E-1,-1.613217E0,2.0523999E0,3.980476E0,-3.095669E-1,2.6684353E0,4.2578623E-1,-1.3559641E0,-1.7351902E-1,3.1307107E-1,-1.5142277E-1,-2.0758046E-1,-2.0516124E-1,-1.5688047E-1,-6.2449026E-1,-1.5171178E-1,8.778846E-1,-9.4690226E-2,-1.9884598E-1,-1.5230933E-1,-1.1256018E-1,2.1359873E-1,1.50799E-1,-1.5726874E0,2.8937368E1,-1.2013867E-1,-1.7123283E-1,6.0477465E-1,-1.0817292E0,-2.2627385E-1,-3.9155632E-1,2.3017533E0,-1.1550578E-1,4.1040487E0,-1.7193967E-1,2.4213187E-1,4.5344704E-1,-1.4150944E-1,1.7476244E0,-1.0884187E-1,7.6787263E-1,4.923143E-1,-2.3783542E-1,-1.5974793E-1,-1.9019704E-1,-1.7809637E0,3.9893548E0,1.0020281E0,-3.234433E0,-4.773127E0,-3.6315548E-1,-2.5838866E0,-1.8546894E0,-1.0030299E2,-9.238873E0,3.4145558E-1,-1.5882354E0,-1.0111993E1,-1.3116926E-1,-8.97312E0,-1.7877531E1,-1.4785452E2,-6.6057776E2,-1.405443E2,-1.1875842E1,-3.7952072E1,-6.3752264E-1,-2.5923714E-1,-1.3599778E1,-8.580228E-1,1.5228896E0,-1.2547543E0,1.0929747E-1,-7.536189E-1,-1.3012423E-1,2.2506309E0,1.1434821E1,7.797453E-1,1.2673702E1,4.1998253E0,-1.4425555E-1,2.4386585E1,-2.363648E-1,-7.9196825E0,1.9481226E0,-1.1025145E-1,1.1307172E0,-1.6311038E-1,-9.273661E0,-6.815005E0,-1.11515045E1,-3.1042E1,-1.6394576E0,-4.4361576E-1,-5.3641224E-1,-2.1431391E0,3.982826E-1,-3.1374967E-1,8.404799E-1,-1.3842604E-1,-1.4761725E-1,6.814102E-1,-1.3126808E-1,1.4005246E1,3.468528E0,-9.202391E0,1.6936345E0,5.977088E0,3.8996625E-1,7.2792006E-1,1.3495989E-1,-1.0311619E0,-2.6943454E-1,-1.8908069E-1,-1.2568951E1,-2.800553E1,-3.933746E0,-1.3618138E0,-1.4600016E-1,-2.0041566E0,-2.5691587E1,-4.6775208E1,-4.0800085E0,-1.0252308E0,-1.5674433E-1,-1.6223524E1,-1.4895872E0,-9.884627E-1,-3.900895E0,-1.608557E-1,-6.0473747E0,-1.6091526E-1,-1.5356789E0,-3.2157023E0,1.8253382E1,4.8755608E0,-1.0030319E-1,5.093237E0,-1.5246686E-1,3.551097E0,-3.765054E-1,2.44641E-3,-1.269524E0,-2.4365773E0,7.4208444E-1,6.998313E0,-1.4647263E-1,1.6704E1,-1.4218522E0,-3.4347E-1,1.1324241E-2,4.159676E0,-1.8280256E-1,-1.4958866E-1,-3.3037758E0,-4.3759627E0,-1.0897264E1,-2.9835753E0,-1.2888001E-1,-4.1812987E0,-5.208156E0,-2.9127808E0,-1.4273642E-1,2.5006871E0,-9.491709E-1,-1.3874445E0,-1.3670299E0,7.462269E-1,-1.7032367E-1,1.444774E-1,-2.3560628E-1,-3.2757756E-1,2.5893412E1,-1.24292426E-1,-1.494103E-1,5.2737894E0,-3.609116E-1,2.5392368E-1,-4.0112716E-1,-1.17838286E-1,2.4752424E0,-1.4041917E-1,1.1953368E1,-1.397315E-1,-9.848956E-2,5.4118595E0,-8.298239E-1,6.6751736E-1,1.0753412E1,-1.318022E-1,-2.3865066E0,-6.4689577E-1,-9.158297E-1,2.8857565E-1,-1.143769E0,-3.7456706E0,-4.7266522E-1,-5.4680604E-2,1.0138226E0,2.516776E0,9.067515E0,4.0478354E0,1.099323E0,2.682276E0,1.4257083E0,-1.699098E-1,-5.468713E-1,-8.714514E-1,-9.141546E-1,-2.0646844E0,-6.2132006E0,-4.355665E0,-1.1877011E0,6.0702804E-2,-6.2620444E0,-1.5962123E0,-7.295774E-1,-5.2276397E-1,-7.293201E-1,-1.0216457E0,-9.7036976E-1,-4.873488E-2,-6.2375713E-2,-2.5514083E-2,-1.3634066E-1,1.3537306E0,3.4069033E0,7.1688213E0,2.5437505E0,-1.0771847E-1,1.4378964E0,-6.806155E-1,1.9488119E-1,3.1076145E0,-1.6784991E0,-1.2446699E-1,9.056341E-1,-1.4889668E-1,-1.1808197E0,1.0752494E0,1.7975306E1,9.8618597E-1,-1.3966428E-1,9.7136796E-2,-1.4921923E-1,-2.2978246E-1,-5.307274E-1,-1.8307263E-1,-1.0774923E-1,7.7194257E0,1.1756598E-1,1.8324509E0,-1.5551373E-1,-1.8464603E-1,-2.5019518E-1,-1.4393685E0,1.4221388E-1,7.235458E0,1.3167378E-1,5.3626195E-2,1.3803253E0,4.6009707E0,-1.5635236E-1,2.084082E-2,1.7765138E0,-1.6630547E0,-1.573941E0,-3.18619E-1,6.6899997E-1,-1.15121506E-1,-1.55226E-1,2.8089156E0,-2.809649E0,-4.296167E0,1.2548022E0,-6.0056454E-1,-1.6388385E0,-5.0522413E0,-1.0095191E1,-1.0989081E2,-1.4906586E0,-6.876783E0,-1.8379378E-1,2.882844E-1,-4.619287E0,-4.6578526E-1,-1.3930798E1,2.64533E-1,-1.0289042E1,-4.850173E1,-1.4875606E2,-4.716587E1,-9.075874E1,-2.7746958E1,-6.614042E0,-4.1463485E0,-1.0981461E0,-3.6747856E0,2.4485894E-1,-2.9943118E0,4.135314E0,-1.923644E-2,-1.5069121E-1,-1.9717832E-1,-1.286187E-1,1.426734E-1,-5.1091104E-3,-3.2468843E-1,-1.19495526E-1,1.5685221E1,-1.5214092E-1,9.5196384E-1,-9.870595E-2,2.0689204E0,3.4696043E0,8.466307E0,4.5064855E0,-2.1776134E-1,-5.8137007E0,4.6747756E-1,-1.9634169E1,-5.292329E-1,-1.02406405E-1,3.1205648E-1,1.4575652E0,-1.4063457E-1,-6.7308135E0,-1.6539465E0,-6.061175E0,-7.4836307E0,-1.8185886E1,-6.1934595E0,-1.7455227E1,-7.1294923E0,-1.6077703E-1,-4.5360354E-1,-7.083888E-1,1.3406432E-1,-2.2594038E-1,-4.6014035E-1,5.2584517E-1,1.3025346E0,2.6816604E0,1.0660669E1,2.4465692E0,4.843798E0,-2.1476152E0,-1.344129E-1,1.9217601E0,-4.2286608E-1,4.4201226E0,9.979167E0,-6.477593E-1,1.34517E-1,-4.8500672E-1,1.2007871E0,-1.1699654E0,8.739434E-2,-1.8057729E0,-5.9383435E0,-4.4707432E-1,-3.7318509E0,-2.627459E1,-2.0219324E1,-1.0501756E2,-2.929703E1,-5.1711065E-1,1.232973E-1,-9.858344E0,-2.1907986E1,-1.6866405E0,-1.3211968E0,-1.2831764E0,-4.111221E-2,-4.865529E0,-2.7431617E0,-1.5264763E-1,-2.7676612E-1,-6.404587E-1,-1.7202058E0,-8.616247E-2,3.2450082E0,-1.4157976E-1,1.5846179E0,1.1888785E0,2.9916403E-1,-3.490771E-1,8.8950425E-2,-1.7251652E-1,-3.023265E-1,-1.461545E-1,-4.196322E-1,-6.5588854E-2,2.699815E-1,2.6083443E0,-1.4280407E-1,-1.20516226E-1,3.158792E0,-2.4310113E-1,-1.3442819E-1,2.5888824E-1,-1.5629427E-1,1.084877E0,-1.4604479E-1,-6.476578E-1,-3.822827E-1,-6.082225E-1,-7.024193E-1,-9.631642E-1,-2.919158E0,-5.851741E-1,-6.830287E-1,-1.707647E-1,4.3956342E-1,-2.9336685E-2,-2.1587896E-1,-1.881893E-1,-2.8226885E-1,-1.8649417E-1,-2.5973442E-1,1.3884751E-1,-1.5765393E-1,-9.829711E-2,5.4674177E0,1.1054999E0,-1.4954008E-1,-3.3274528E-1,1.14347816E-1,2.7290244E0,1.5479232E0,-3.3815056E-1,-3.4274496E-2,1.5738705E-1,-3.832074E-1,1.0180314E0,3.0219014E0,-2.4881424E-1,-6.2926745E-1,-2.3868291E-1,-9.433799E-2,-6.063325E-1,1.2014153E-1,-1.9601066E-1,2.58265E-1,4.1579953E-1,3.3471757E-1,1.0482584E0,5.137853E0,8.4407854E-1,-1.6167274E-1,3.2485986E-1,-1.6081053E-1,-1.2318276E-1,4.2253453E-1,1.0544892E-1,2.789018E-1,-6.5300876E-1,-1.7870748E0,-1.4337997E0,-2.9014742E-1,-8.945171E-1,-1.4842886E0,-1.4552575E-1,8.947703E-1,-1.0051682E-1,1.2002416E0,7.6214314E-1,1.5328234E-1,-1.9917972E-1,-3.3095367E-2,-1.5631151E-1,1.6941394E-1,2.7796894E-1,9.051278E-1,-1.046161E-1,-2.5727257E-1,-1.5588763E-1,-2.6098177E-1,-1.5366371E-1,2.5050163E-1,-1.3622323E-1,3.9505618E0,3.3476114E-1,-1.6397691E-1,1.2512425E-1,-1.7777726E-1,-8.592147E-2,2.8629088E-1,-4.781399E-3,-1.5633182E-1,-1.2940393E-1,-2.541081E-1,-1.5010642E-1,4.6334993E-2,7.620824E-1,1.6368558E0,-1.873325E-1,3.6598347E-2,2.589221E-1,-5.038577E-3,5.628861E-1,8.36211E-1,1.2249726E0,-1.7304445E-2,-1.5332249E-1,-3.20171E-1,-1.550515E-1,-2.94219E-1,-1.3853444E-1,5.5826735E-1,-1.7407474E-1,-4.947986E-1,-2.658359E0,-4.2311072E-1,-1.7787397E-1,5.881649E-1,-4.980382E-2,-1.662793E-1,-2.788006E-1,-1.9184996E-1,-5.478412E-1,-1.4660196E0,-1.154282E1,-1.9122562E1,-1.4081844E0,-7.100431E-1,-3.9829612E-1,-7.821922E-1,9.343361E-2,-3.9510605E-1,-2.945503E0,1.9053068E-2,-1.3212786E1,-1.7527432E0,-5.0157154E1,-3.396693E0,-1.8641443E1,-5.3799434E0,5.3468913E-2,-1.5499973E-1,-5.48984E-1,-2.9844388E-1,7.380853E-2,-2.0129697E-1,1.380087E-2,2.8381871E-2,2.7577329E0,-9.095346E-2,2.10446E-1,5.4328594E-2,6.888293E-1,3.1768894E-1,-1.6321826E-1,3.678524E0,-1.3043714E0,-4.921972E-1,2.1589702E-1,-5.7188906E-3,-1.8287219E0,-4.677722E0,-1.4079264E-1,2.707289E-1,-6.8744385E-1,-1.8037202E0,-1.2896507E0,-8.3226883E-1,-9.7305495E-1,-1.5721847E0,-8.7031335E-1,-5.3988414E0,-4.624567E-1,-1.7086836E0,-4.226927E0,-1.98547E0,-4.985191E-1,6.310402E-3,-1.2774445E0,1.1605898E-1,6.3723E-2,2.9597485E-1,2.4933656E-1,1.1338735E-1,-1.16556324E-1,2.0590167E0,7.547308E-1,1.6035289E-1,-1.3057534E-1,8.172632E-1,1.8809976E-1,3.5549185E-1,1.2723033E0,2.0980039E-1,1.5611712E0,-1.4495158E-1,-1.6504906E-1,2.276286E-1,-1.4511782E-1,2.4490146E-1,-1.640232E-1,-2.7877903E-1,-5.0673836E-1,9.693808E-2,-3.6606166E0,-4.3247294E0,-4.208738E0,-2.2878418E0,-2.1842155E1,-2.155075E0,-7.342175E0,-2.1051772E0,4.7534246E-2,-3.2471287E-1,-3.9383202E0,-2.0318131E-1,-4.325461E0,-1.1775E0,-2.621271E-1,-1.9790746E-1,-1.331344E-1,-2.284876E-1,-1.9729511E-1,-1.4963402E-1,8.257832E-2,-1.7967305E-1,-6.142049E-1,-1.1442587E0,-2.1949852E-1,-7.044353E-1,-1.5407792E-1,-3.4890512E-1],"categories":[],"categories_nodes":[],"categories_segments":[],"categories_sizes":[],"default_left":[0,0,0,0,0,0,0,0,0,0,0,0,0,0,0,0,0,0,0,0,0,0,0,0,0,0,0,0,0,0,0,0,0,0,0,0,0,0,0,0,0,0,0,0,0,0,0,0,0,0,0,0,0,0,0,0,0,0,0,0,0,0,0,0,0,0,0,0,0,0,0,0,0,0,0,0,0,0,0,0,0,0,0,0,0,0,0,0,0,0,0,0,0,0,0,0,0,0,0,0,0,0,0,0,0,0,0,0,0,0,0,0,0,0,0,0,0,0,0,0,0,0,0,0,0,0,0,0,0,0,0,0,0,0,0,0,0,0,0,0,0,0,0,0,0,0,0,0,0,0,0,0,0,0,0,0,0,0,0,0,0,0,0,0,0,0,0,0,0,0,0,0,0,0,0,0,0,0,0,0,0,0,0,0,0,0,0,0,0,0,0,0,0,0,0,0,0,0,0,0,0,0,0,0,0,0,0,0,0,0,0,0,0,0,0,0,0,0,0,0,0,0,0,0,0,0,0,0,0,0,0,0,0,0,0,0,0,0,0,0,0,0,0,0,0,0,0,0,0,0,0,0,0,0,0,0,0,0,0,0,0,0,0,0,0,0,0,0,0,0,0,0,0,0,0,0,0,0,0,0,0,0,0,0,0,0,0,0,0,0,0,0,0,0,0,0,0,0,0,0,0,0,0,0,0,0,0,0,0,0,0,0,0,0,0,0,0,0,0,0,0,0,0,0,0,0,0,0,0,0,0,0,0,0,0,0,0,0,0,0,0,0,0,0,0,0,0,0,0,0,0,0,0,0,0,0,0,0,0,0,0,0,0,0,0,0,0,0,0,0,0,0,0,0,0,0,0,0,0,0,0,0,0,0,0,0,0,0,0,0,0,0,0,0,0,0,0,0,0,0,0,0,0,0,0,0,0,0,0,0,0,0,0,0,0,0,0,0,0,0,0,0,0,0,0,0,0,0,0,0,0,0,0,0,0,0,0,0,0,0,0,0,0,0,0,0,0,0,0,0,0,0,0,0,0,0,0,0,0,0,0,0,0,0,0,0,0,0,0,0,0,0,0,0,0,0,0,0,0,0,0,0,0,0,0,0,0,0,0,0,0,0,0,0,0,0,0,0,0,0,0,0,0,0,0,0,0,0,0,0,0,0,0,0,0,0,0,0,0,0,0,0,0,0,0,0,0,0,0,0,0,0,0,0,0,0,0,0,0,0,0,0,0,0,0,0,0,0,0,0,0,0,0,0,0,0,0,0,0,0,0,0,0,0,0,0,0,0,0,0,0,0,0,0,0,0,0,0,0,0,0,0,0,0,0,0,0,0,0,0,0,0,0,0,0,0,0,0,0,0,0,0,0,0,0,0,0,0,0,0,0,0,0,0,0,0,0,0,0,0,0,0,0,0,0,0,0,0,0,0,0,0,0,0,0,0,0,0,0,0,0,0,0,0,0,0,0,0,0,0,0,0,0,0,0,0,0,0,0,0,0,0,0,0,0,0,0,0,0,0,0,0,0,0,0,0,0,0,0,0,0,0,0,0,0,0,0,0,0,0,0,0,0,0,0,0,0,0,0,0,0,0,0,0,0,0,0,0,0,0,0,0,0,0,0,0,0,0,0,0,0,0,0,0,0,0,0,0,0,0,0,0,0,0,0,0,0,0,0,0,0,0,0,0,0,0,0,0,0,0,0,0,0,0,0,0,0,0,0,0,0,0,0,0,0,0,0,0,0,0,0,0,0,0,0,0,0,0,0,0,0,0,0,0,0,0,0,0,0,0,0,0,0,0,0,0,0,0,0,0,0,0,0,0,0,0,0,0,0,0,0,0,0,0,0,0,0,0,0,0,0,0,0,0,0,0,0,0,0,0,0,0,0,0,0,0,0,0,0,0,0,0,0,0,0,0,0,0,0,0,0,0,0,0,0,0,0,0,0,0,0,0,0,0,0,0,0,0,0,0,0,0,0,0,0,0,0,0,0,0,0,0,0,0,0,0,0,0,0,0,0,0,0,0,0,0,0,0,0,0,0,0,0,0,0,0,0,0,0,0,0,0,0,0,0,0,0,0,0,0,0,0,0,0,0,0,0,0,0,0,0,0,0,0,0,0,0,0,0,0,0,0,0,0,0,0,0,0,0,0,0,0,0,0,0,0,0,0,0,0,0,0,0,0,0,0,0,0,0,0,0,0,0,0,0,0,0,0,0,0,0,0,0,0,0,0,0,0,0,0,0,0,0,0,0,0,0,0,0,0,0,0,0,0,0,0,0,0,0,0,0,0,0,0,0,0,0,0,0,0,0,0,0,0,0,0,0,0,0,0,0,0,0,0,0,0,0,0,0,0,0,0,0,0,0,0,0,0,0,0,0,0,0,0,0,0,0,0,0,0,0,0,0,0,0,0,0,0,0,0,0,0,0,0,0,0,0,0,0,0,0,0,0,0,0,0,0,0,0,0,0,0,0,0,0,0,0,0,0,0,0,0,0,0,0,0,0,0,0,0,0,0,0,0,0,0,0,0,0,0,0,0,0,0,0,0,0,0,0,0,0,0,0,0,0,0,0,0,0],"id":2,"left_children":[1,3,5,7,9,11,13,15,17,19,21,23,25,27,29,31,33,35,37,39,41,43,45,47,49,51,-1,-1,-1,-1,-1,53,55,57,59,61,63,65,67,69,71,73,75,77,79,81,83,85,-1,87,89,91,93,95,97,99,101,103,105,107,109,111,113,115,117,-1,119,121,123,125,127,129,-1,131,133,135,137,139,141,143,145,147,149,-1,151,-1,-1,153,155,157,-1,-1,-1,159,161,163,165,167,169,171,173,175,177,179,-1,181,183,185,187,189,191,193,195,197,199,201,203,205,207,209,-1,211,213,215,-1,217,219,221,223,225,227,229,231,233,-1,235,237,-1,-1,239,241,243,245,247,249,251,253,255,257,259,261,263,265,267,-1,269,271,-1,273,-1,275,-1,-1,277,-1,279,281,283,285,287,289,291,293,295,297,299,301,303,305,307,-1,-1,309,311,-1,313,315,317,319,-1,321,-1,-1,323,325,327,329,331,333,-1,-1,335,337,339,-1,341,-1,343,345,-1,-1,347,-1,349,351,-1,353,-1,355,357,359,361,-1,363,-1,-1,365,-1,367,369,371,373,375,377,-1,379,381,383,385,387,-1,389,391,393,395,397,399,401,403,-1,-1,-1,-1,405,407,-1,409,-1,411,413,415,417,419,-1,421,-1,-1,423,-1,425,427,-1,-1,-1,-1,-1,-1,-1,429,431,433,435,437,439,441,443,-1,445,447,449,451,-1,453,455,457,459,461,-1,463,465,467,469,471,473,475,477,-1,479,481,483,485,487,-1,489,491,493,-1,-1,-1,495,-1,497,499,501,-1,503,505,507,509,511,513,-1,515,-1,-1,517,519,521,-1,-1,523,-1,525,527,-1,529,531,-1,-1,533,-1,535,537,-1,-1,-1,-1,539,541,-1,543,-1,545,547,549,-1,-1,-1,551,553,555,557,559,561,563,565,567,-1,-1,569,571,-1,-1,573,575,577,579,581,583,585,587,589,591,593,595,597,599,601,603,-1,605,607,609,611,613,615,617,-1,-1,619,621,623,625,627,629,631,633,635,637,639,641,-1,-1,-1,-1,-1,-1,-1,-1,643,645,-1,647,649,651,653,655,657,659,661,663,665,667,-1,669,-1,671,673,675,677,-1,-1,679,681,683,-1,-1,685,687,-1,689,691,693,-1,-1,695,697,699,701,703,-1,705,-1,707,-1,709,711,-1,713,-1,-1,715,717,719,721,723,-1,-1,-1,-1,725,727,-1,-1,-1,729,-1,731,-1,-1,-1,733,-1,-1,-1,735,737,739,741,-1,743,-1,745,747,749,751,753,-1,-1,-1,-1,-1,-1,-1,-1,-1,-1,-1,-1,-1,-1,-1,755,757,-1,-1,759,761,-1,763,765,-1,-1,-1,767,-1,-1,769,771,-1,-1,-1,-1,773,775,777,779,781,-1,783,785,-1,787,789,791,793,795,-1,-1,797,799,-1,801,-1,803,-1,-1,805,807,809,811,813,815,-1,-1,817,819,821,823,-1,825,827,829,831,-1,833,-1,835,837,839,841,843,845,-1,847,-1,-1,-1,-1,-1,849,-1,851,853,855,857,859,-1,861,863,865,-1,-1,-1,867,-1,869,-1,-1,871,873,-1,-1,875,877,879,881,883,-1,-1,-1,885,887,889,891,-1,-1,-1,893,-1,895,897,899,901,903,-1,905,907,-1,909,911,-1,-1,913,915,917,-1,-1,919,-1,-1,-1,921,923,925,927,929,-1,-1,-1,-1,931,-1,-1,933,-1,935,-1,-1,-1,-1,937,-1,-1,-1,939,941,943,-1,945,-1,947,949,-1,-1,-1,-1,951,953,955,957,959,961,963,-1,-1,-1,-1,-1,965,967,-1,-1,969,-1,-1,-1,-1,-1,-1,-1,-1,-1,-1,-1,971,973,-1,-1,975,977,979,981,983,-1,-1,-1,985,987,989,991,-1,-1,-1,-1,-1,-1,-1,-1,993,995,-1,-1,997,999,1001,1003,-1,1005,1007,1009,-1,-1,1011,1013,1015,-1,-1,-1,-1,1017,1019,1021,1023,1025,1027,1029,-1,1031,-1,1033,-1,-1,1035,1037,-1,-1,1039,1041,-1,1043,1045,-1,-1,-1,-1,-1,1047,1049,-1,1051,-1,-1,-1,1053,-1,-1,-1,1055,-1,1057,-1,-1,1059,1061,-1,-1,1063,1065,1067,-1,-1,-1,1069,-1,1071,-1,1073,1075,1077,1079,1081,-1,-1,-1,1083,1085,-1,-1,1087,1089,-1,1091,1093,1095,-1,-1,1097,-1,1099,1101,-1,-1,1103,1105,1107,-1,-1,-1,1109,-1,1111,1113,1115,1117,-1,1119,1121,1123,1125,1127,1129,1131,1133,1135,-1,-1,-1,1137,-1,-1,-1,-1,-1,-1,-1,-1,-1,-1,-1,-1,-1,-1,-1,-1,-1,-1,-1,-1,-1,-1,-1,-1,-1,-1,-1,-1,-1,-1,-1,-1,-1,-1,-1,-1,-1,-1,-1,-1,-1,-1,-1,-1,-1,-1,-1,-1,-1,-1,-1,-1,-1,-1,-1,-1,-1,-1,-1,-1,-1,-1,-1,-1,-1,-1,-1,-1,-1,-1,-1,-1,-1,-1,-1,-1,-1,-1,-1,-1,-1,-1,-1,-1,-1,-1,-1,-1,-1,-1,-1,-1,-1,-1,-1,-1,-1,-1,-1,-1,-1,-1,-1,-1,-1,-1,-1,-1,-1,-1,-1,-1,-1,-1,-1,-1,-1,-1,-1,-1,-1,-1,-1,-1,-1,-1,-1,-1,-1,-1,-1,-1,-1,-1,-1,-1,-1,-1,-1,-1,-1,-1,-1,-1,-1,-1,-1,-1,-1,-1,-1,-1,-1,-1,-1,-1,-1,-1,-1,-1,-1,-1,-1,-1,-1,-1,-1,-1,-1,-1,-1,-1,-1,-1,-1,-1,-1,-1,-1,-1,-1,-1,-1,-1,-1,-1,-1,-1,-1,-1,-1,-1,-1,-1,-1,-1,-1,-1,-1,-1,-1,-1,-1,-1,-1,-1,-1,-1,-1,-1,-1,-1,-1,-1,-1,-1,-1,-1,-1,-1,-1,-1,-1,-1,-1,-1,-1,-1,-1,-1,-1,-1,-1,-1,-1,-1,-1,-1,-1,-1,-1,-1,-1,-1,-1,-1,-1,-1,-1,-1],"loss_changes":[5.478877E6,1.9015875E5,1.9821155E6,2.0467273E4,2.20529E5,5.49309E5,3.274887E6,1.2910641E5,2.6402156E3,5.728493E5,5.920689E4,7.9962775E5,2.6944727E4,2.6561469E4,1.635004E6,1.3755193E4,6.211403E4,1.0591873E3,4.3923608E2,4.977109E3,2.451795E6,5.3541274E3,8.274017E4,2.8695178E7,2.0542175E5,3.5973462E3,0E0,0E0,0E0,0E0,0E0,1.0756113E4,1.584832E3,2.2284906E5,7.3818164E2,6.484392E2,3.8668408E2,6.177493E2,2.3971558E2,1.7524045E3,1.4737793E2,7.546217E4,5.4705645E6,1.1463797E4,1.9482024E3,3.0704242E4,1.0908951E6,1.3918594E4,0E0,8.846925E4,1.06644125E5,3.4586133E2,7.1005444E2,9.3511725E2,1.1576947E4,4.331367E3,2.871308E3,6.3789625E5,5.882782E3,4.432373E2,6.358705E2,1.8098962E3,5.562436E1,2.7330164E2,6.106795E2,0E0,4.9055945E2,1.1155151E2,1.0884027E3,7.275878E2,1.1785803E3,1.1127441E1,0E0,9.199992E3,5.3265055E6,3.382057E6,1.3982925E6,9.373894E2,6.1890244E3,6.508894E3,7.199861E2,9.051743E2,1.5027288E5,0E0,3.6336763E3,0E0,0E0,3.7516094E3,1.3035875E5,2.5493156E4,0E0,0E0,0E0,3.484342E2,2.3997021E2,1.122714E3,6.1999347E2,5.6081508E4,5.6980884E2,6.6295795E2,4.159198E3,2.2419912E3,9.207073E2,1.1851631E3,0E0,4.520918E2,1.6402983E2,2.982588E2,5.203375E2,3.9978436E2,2.7309326E1,1.9515825E3,7.2072327E2,9.834572E1,2.9509928E1,1.40025E2,4.9793323E2,7.014044E1,1.3800937E2,1.6469983E2,0E0,2.7683228E1,1.5540688E3,1.0994682E1,0E0,5.9953705E1,4.337027E2,1.1111332E4,1.8091016E2,9.845581E-1,2.4100403E1,1.5563901E3,5.6046504E4,4.329123E1,0E0,8.400842E7,5.14694E4,0E0,0E0,1.6682527E2,1.3406858E3,1.0929779E4,3.1525653E2,1.3380486E3,1.17968766E5,3.707231E1,1.0766895E3,4.6795886E2,2.9951968E3,9.05575E4,3.3972324E3,5.004384E3,1.2248474E1,3.1271562E3,0E0,3.5542938E4,3.0664875E4,0E0,3.9182125E4,0E0,3.070986E2,0E0,0E0,3.4001536E3,0E0,5.09023E2,1.8995906E3,1.254625E3,1.3954609E3,2.8593738E2,3.3877913E3,1.3397751E3,2.5096292E2,2.8188525E3,2.9944235E2,4.633284E2,3.7735693E2,1.0372959E3,1.4663931E3,2.5577148E2,0E0,0E0,6.8659863E2,1.1287973E2,0E0,6.1314307E2,1.8932275E2,1.8210779E2,1.8914612E2,0E0,4.166987E1,0E0,0E0,3.556291E2,1.3737656E3,5.486053E2,2.5825098E3,1.5557622E2,3.785553E0,0E0,0E0,2.4785898E2,4.270447E0,8.610068E1,0E0,7.166809E1,0E0,3.5515747E0,5.560546E1,0E0,0E0,6.3961975E1,0E0,1.4725955E3,2.1520795E2,0E0,4.3099747E1,0E0,9.109253E0,2.4711465E3,6.492464E1,5.473451E2,0E0,7.17062E2,0E0,0E0,1.1282349E0,0E0,6.2999268E0,8.934995E2,4.2854033E3,1.1318957E5,7.1986084E3,1.7175018E1,0E0,1.0620134E7,1.030456E8,1.166102E4,1.8383475E3,1.4822144E3,0E0,2.0338618E3,1.9326904E3,1.4144228E2,6.686711E3,2.4101118E2,1.1052794E2,3.3112683E2,1.757023E3,0E0,0E0,0E0,0E0,4.7282617E2,3.613059E2,0E0,4.6357092E2,0E0,1.8074852E4,1.2672E4,8.38236E3,3.2525098E2,8.0998145E3,0E0,2.6029492E2,0E0,0E0,3.5890156E3,0E0,1.7556594E4,1.3479516E4,0E0,0E0,0E0,0E0,0E0,0E0,0E0,1.3315479E3,4.7306805E2,7.095154E1,1.2416084E3,7.816458E2,1.4248115E3,3.8999658E3,5.246172E2,0E0,2.007107E2,6.760474E1,1.4732593E2,1.908291E3,0E0,1.3735049E3,1.7807426E2,1.5971109E2,8.925373E2,1.1896318E3,0E0,2.59526E2,2.5604187E3,2.0192816E2,1.4193716E3,9.408632E1,1.5675754E2,1.5002402E3,1.3514836E2,0E0,1.1494775E3,9.58042E1,2.647788E2,7.453086E2,6.3734474E1,0E0,2.171289E2,8.5253906E-1,9.3254395E1,0E0,0E0,0E0,1.739834E2,0E0,1.23842155E2,8.323836E1,5.284106E2,0E0,1.5178796E3,6.871846E2,6.028329E2,1.0072266E1,1.2421416E3,1.362239E3,0E0,1.4844183E2,0E0,0E0,4.2511444E1,1.2542725E-2,2.4572144E0,0E0,0E0,4.5368927E1,0E0,5.1275574E1,2.8996277E-1,0E0,1.5451904E1,8.534116E1,0E0,0E0,2.0733872E3,0E0,2.629074E2,2.2222778E1,0E0,0E0,0E0,0E0,4.815974E2,1.686783E3,0E0,7.483722E1,0E0,1.444018E2,3.1001404E2,5.7700806E1,0E0,0E0,0E0,1.3221039E1,3.0310992E2,2.0894482E2,2.1399172E4,7.478635E2,1.6139895E5,4.4304517E3,3.584892E3,9.688739E3,0E0,0E0,1.1246679E6,3.839797E7,0E0,0E0,6.832125E3,4.3555107E0,4.413626E3,6.525369E2,5.348449E1,9.3480994E2,1.5074583E3,1.476981E3,2.4052156E3,1.4031248E3,2.0664062E1,1.9934758E2,3.2593945E2,2.7909326E3,3.22138E1,1.1573608E1,0E0,4.9336334E1,3.1197467E2,7.137399E1,1.0734407E3,1.9937432E3,1.2005918E3,1.0396335E2,0E0,0E0,1.6563162E2,1.045105E0,2.500545E3,3.3621099E3,9.255353E2,8.1822812E3,1.8277432E3,2.5569692E3,7.770703E1,6.77887E1,1.2352104E4,3.416086E1,0E0,0E0,0E0,0E0,0E0,0E0,0E0,0E0,1.1620095E3,1.7188E3,0E0,7.1930725E2,1.0657192E2,1.4774548E2,8.1048E2,3.5790347E3,6.867932E1,4.7338986E2,5.300293E-1,1.4636328E2,6.222998E2,5.7990723E1,0E0,6.6520703E2,0E0,1.0180148E2,3.2091187E1,2.5506613E2,8.9291084E1,0E0,0E0,7.484436E-2,1.8498606E3,7.5878436E2,0E0,0E0,9.8817245E1,7.538025E0,0E0,1.5256942E3,1.3962148E3,1.8234414E3,0E0,0E0,3.2460757E2,7.1382104E2,2.2743591E1,8.344505E1,5.0170435E2,0E0,1.9873524E1,0E0,1.1927661E2,0E0,7.993955E2,8.9828186E1,0E0,4.8699554E1,0E0,0E0,2.3240906E1,5.0223926E2,3.6197998E1,1.9789763E2,1.1805469E2,0E0,0E0,0E0,0E0,3.6123047E1,3.0982422E1,0E0,0E0,0E0,2.9560025E2,0E0,7.500658E-1,0E0,0E0,0E0,5.2743567E2,0E0,0E0,0E0,1.6942957E2,6.22624E2,7.689187E2,6.061559E2,0E0,9.670334E-1,0E0,3.5460242E2,4.2156125E2,7.066714E3,2.4938507E1,5.561981E0,0E0,0E0,0E0,0E0,0E0,0E0,0E0,0E0,0E0,0E0,0E0,0E0,0E0,0E0,0E0,1.2068283E1,3.890833E3,0E0,0E0,1.018983E2,4.8187256E-1,0E0,1.8946468E1,1.4466102E3,0E0,0E0,0E0,3.742662E1,0E0,0E0,5.5044995E2,2.5391466E1,0E0,0E0,0E0,0E0,5.532244E2,1.9987305E1,7.8798035E1,3.0225723E2,2.3759326E2,0E0,2.1102182E2,4.818828E2,0E0,3.7105312E3,8.883594E1,2.46919E2,3.7640981E3,5.097757E4,0E0,0E0,9.5442984E4,6.707875E6,0E0,1.1984703E4,0E0,2.0706445E2,0E0,0E0,2.561851E3,2.0350484E2,4.343066E3,4.504944E0,6.4932404E0,1.1468999E2,0E0,0E0,7.328728E2,1.0159723E2,3.840105E2,3.6949E2,0E0,1.0261831E3,5.742658E2,1.3947997E3,1.7710556E1,0E0,4.934694E1,0E0,2.7470117E2,1.1415039E2,4.3176965E2,3.1228008E3,1.6187584E1,4.3267586E1,0E0,5.133209E0,0E0,0E0,0E0,0E0,0E0,8.587213E1,0E0,1.06052246E2,1.8147363E2,5.68871E2,1.6799677E2,6.642456E2,0E0,9.5482834E1,2.4717978E2,4.1206604E1,0E0,0E0,0E0,3.0744873E2,0E0,1.2642483E3,0E0,0E0,1.1064375E3,1.8098562E4,0E0,0E0,2.0607944E2,1.5918628E2,3.212036E1,1.2725876E2,5.6700806E1,0E0,0E0,0E0,9.382584E0,1.8602432E1,5.8297144E2,9.7788464E2,0E0,0E0,0E0,4.9295306E2,0E0,8.945729E1,2.6559387E1,8.578595E1,7.163738E2,1.7933392E3,0E0,1.4992705E3,4.141736E1,0E0,2.9433917E2,5.304044E2,0E0,0E0,1.5080103E2,2.3136719E1,9.91968E2,0E0,0E0,8.208496E0,0E0,0E0,0E0,7.367059E1,8.142418E1,5.3898315E1,6.432617E0,2.7365597E1,0E0,0E0,0E0,0E0,1.8231909E3,0E0,0E0,7.1892786E2,0E0,6.763758E1,0E0,0E0,0E0,0E0,7.562197E2,0E0,0E0,0E0,2.470248E2,3.5958984E2,9.5115454E2,0E0,4.5671326E1,0E0,5.64738E1,1.626917E2,0E0,0E0,0E0,0E0,2.3256068E2,1.9702148E-1,3.3003125E3,5.423546E2,1.5738945E2,4.2339172E1,4.784015E1,0E0,0E0,0E0,0E0,0E0,3.2808545E2,4.6798376E2,0E0,0E0,8.74917E1,0E0,0E0,0E0,0E0,0E0,0E0,0E0,0E0,0E0,0E0,0E0,4.3868057E2,1.4199902E2,0E0,0E0,4.1331964E2,1.3409082E2,1.4979012E2,5.866267E2,3.0008698E-1,0E0,0E0,0E0,1.5152649E1,1.7036107E2,4.316336E3,6.4718445E2,0E0,0E0,0E0,0E0,0E0,0E0,0E0,0E0,1.1608169E2,9.965057E0,0E0,0E0,2.0035044E1,7.8334045E-1,1.8507515E1,2.7215942E2,0E0,6.0373173E1,2.3090765E2,2.878247E1,0E0,0E0,9.9017096E2,3.0792206E1,4.1664917E1,0E0,0E0,0E0,0E0,1.5121262E2,3.1735913E2,3.0461653E3,4.6256946E2,6.484012E1,9.759674E0,3.4564966E2,0E0,5.0354375E3,0E0,9.002539E1,0E0,0E0,3.3580225E2,1.9112045E3,0E0,0E0,3.234059E4,1.1805869E5,0E0,5.0003162E5,1.044032E4,0E0,0E0,0E0,0E0,0E0,8.596868E0,1.23637085E1,0E0,7.036795E1,0E0,0E0,0E0,4.3466115E-1,0E0,0E0,0E0,4.6554297E2,0E0,7.867685E1,0E0,0E0,1.5872058E2,2.790581E3,0E0,0E0,9.1085754E1,6.403387E1,2.6807642E2,0E0,0E0,0E0,5.3024048E1,0E0,3.373042E2,0E0,1.5259717E2,4.2030566E2,1.1003276E3,1.374231E2,1.361289E2,0E0,0E0,0E0,3.8029065E2,5.0210495E2,0E0,0E0,1.0415297E2,3.3889038E1,0E0,5.2851733E2,2.8281613E2,2.0381519E2,0E0,0E0,4.219568E1,0E0,1.0145912E3,1.5570752E2,0E0,0E0,2.932817E2,1.3037073E2,6.757599E0,0E0,0E0,0E0,1.8833015E2,0E0,1.499125E3,1.6653594E3,1.4154117E4,4.5277256E3,0E0,9.221556E1,9.000035E2,2.2742163E2,8.277222E0,4.795874E1,1.8786621E0,7.541045E1,3.8878174E1,7.011713E1,0E0,0E0,0E0,1.1710739E0,0E0,0E0,0E0,0E0,0E0,0E0,0E0,0E0,0E0,0E0,0E0,0E0,0E0,0E0,0E0,0E0,0E0,0E0,0E0,0E0,0E0,0E0,0E0,0E0,0E0,0E0,0E0,0E0,0E0,0E0,0E0,0E0,0E0,0E0,0E0,0E0,0E0,0E0,0E0,0E0,0E0,0E0,0E0,0E0,0E0,0E0,0E0,0E0,0E0,0E0,0E0,0E0,0E0,0E0,0E0,0E0,0E0,0E0,0E0,0E0,0E0,0E0,0E0,0E0,0E0,0E0,0E0,0E0,0E0,0E0,0E0,0E0,0E0,0E0,0E0,0E0,0E0,0E0,0E0,0E0,0E0,0E0,0E0,0E0,0E0,0E0,0E0,0E0,0E0,0E0,0E0,0E0,0E0,0E0,